<?xml version="1.0"?>
<opencv_storage>
<opencv_ml_boost>
  <format>3</format>
  <is_classifier>1</is_classifier>
  <var_all>401</var_all>
  <var_count>400</var_count>
  <ord_var_count>400</ord_var_count>
  <cat_var_count>1</cat_var_count>
  <training_params>
    <boosting_type>RealAdaboost</boosting_type>
    <use_surrogates>0</use_surrogates>
    <max_categories>10</max_categories>
    <regression_accuracy>9.9999997764825821e-03</regression_accuracy>
    <max_depth>1</max_depth>
    <min_sample_count>10</min_sample_count>
    <cross_validation_folds>0</cross_validation_folds>
    <weight_trimming_rate>9.4999999999999996e-01</weight_trimming_rate></training_params>
  <global_var_idx>1</global_var_idx>
  <var_idx>
    0 1 2 3 4 5 6 7 8 9 10 11 12 13 14 15 16 17 18 19 20 21 22 23 24 25
    26 27 28 29 30 31 32 33 34 35 36 37 38 39 40 41 42 43 44 45 46 47 48
    49 50 51 52 53 54 55 56 57 58 59 60 61 62 63 64 65 66 67 68 69 70 71
    72 73 74 75 76 77 78 79 80 81 82 83 84 85 86 87 88 89 90 91 92 93 94
    95 96 97 98 99 100 101 102 103 104 105 106 107 108 109 110 111 112
    113 114 115 116 117 118 119 120 121 122 123 124 125 126 127 128 129
    130 131 132 133 134 135 136 137 138 139 140 141 142 143 144 145 146
    147 148 149 150 151 152 153 154 155 156 157 158 159 160 161 162 163
    164 165 166 167 168 169 170 171 172 173 174 175 176 177 178 179 180
    181 182 183 184 185 186 187 188 189 190 191 192 193 194 195 196 197
    198 199 200 201 202 203 204 205 206 207 208 209 210 211 212 213 214
    215 216 217 218 219 220 221 222 223 224 225 226 227 228 229 230 231
    232 233 234 235 236 237 238 239 240 241 242 243 244 245 246 247 248
    249 250 251 252 253 254 255 256 257 258 259 260 261 262 263 264 265
    266 267 268 269 270 271 272 273 274 275 276 277 278 279 280 281 282
    283 284 285 286 287 288 289 290 291 292 293 294 295 296 297 298 299
    300 301 302 303 304 305 306 307 308 309 310 311 312 313 314 315 316
    317 318 319 320 321 322 323 324 325 326 327 328 329 330 331 332 333
    334 335 336 337 338 339 340 341 342 343 344 345 346 347 348 349 350
    351 352 353 354 355 356 357 358 359 360 361 362 363 364 365 366 367
    368 369 370 371 372 373 374 375 376 377 378 379 380 381 382 383 384
    385 386 387 388 389 390 391 392 393 394 395 396 397 398 399</var_idx>
  <var_type>
    0 0 0 0 0 0 0 0 0 0 0 0 0 0 0 0 0 0 0 0 0 0 0 0 0 0 0 0 0 0 0 0 0 0
    0 0 0 0 0 0 0 0 0 0 0 0 0 0 0 0 0 0 0 0 0 0 0 0 0 0 0 0 0 0 0 0 0 0
    0 0 0 0 0 0 0 0 0 0 0 0 0 0 0 0 0 0 0 0 0 0 0 0 0 0 0 0 0 0 0 0 0 0
    0 0 0 0 0 0 0 0 0 0 0 0 0 0 0 0 0 0 0 0 0 0 0 0 0 0 0 0 0 0 0 0 0 0
    0 0 0 0 0 0 0 0 0 0 0 0 0 0 0 0 0 0 0 0 0 0 0 0 0 0 0 0 0 0 0 0 0 0
    0 0 0 0 0 0 0 0 0 0 0 0 0 0 0 0 0 0 0 0 0 0 0 0 0 0 0 0 0 0 0 0 0 0
    0 0 0 0 0 0 0 0 0 0 0 0 0 0 0 0 0 0 0 0 0 0 0 0 0 0 0 0 0 0 0 0 0 0
    0 0 0 0 0 0 0 0 0 0 0 0 0 0 0 0 0 0 0 0 0 0 0 0 0 0 0 0 0 0 0 0 0 0
    0 0 0 0 0 0 0 0 0 0 0 0 0 0 0 0 0 0 0 0 0 0 0 0 0 0 0 0 0 0 0 0 0 0
    0 0 0 0 0 0 0 0 0 0 0 0 0 0 0 0 0 0 0 0 0 0 0 0 0 0 0 0 0 0 0 0 0 0
    0 0 0 0 0 0 0 0 0 0 0 0 0 0 0 0 0 0 0 0 0 0 0 0 0 0 0 0 0 0 0 0 0 0
    0 0 0 0 0 0 0 0 0 0 0 0 0 0 0 0 0 0 0 0 0 0 0 0 0 0 1</var_type>
  <cat_ofs>
    0 0 0 0 0 0 0 0 0 0 0 0 0 0 0 0 0 0 0 0 0 0 0 0 0 0 0 0 0 0 0 0 0 0
    0 0 0 0 0 0 0 0 0 0 0 0 0 0 0 0 0 0 0 0 0 0 0 0 0 0 0 0 0 0 0 0 0 0
    0 0 0 0 0 0 0 0 0 0 0 0 0 0 0 0 0 0 0 0 0 0 0 0 0 0 0 0 0 0 0 0 0 0
    0 0 0 0 0 0 0 0 0 0 0 0 0 0 0 0 0 0 0 0 0 0 0 0 0 0 0 0 0 0 0 0 0 0
    0 0 0 0 0 0 0 0 0 0 0 0 0 0 0 0 0 0 0 0 0 0 0 0 0 0 0 0 0 0 0 0 0 0
    0 0 0 0 0 0 0 0 0 0 0 0 0 0 0 0 0 0 0 0 0 0 0 0 0 0 0 0 0 0 0 0 0 0
    0 0 0 0 0 0 0 0 0 0 0 0 0 0 0 0 0 0 0 0 0 0 0 0 0 0 0 0 0 0 0 0 0 0
    0 0 0 0 0 0 0 0 0 0 0 0 0 0 0 0 0 0 0 0 0 0 0 0 0 0 0 0 0 0 0 0 0 0
    0 0 0 0 0 0 0 0 0 0 0 0 0 0 0 0 0 0 0 0 0 0 0 0 0 0 0 0 0 0 0 0 0 0
    0 0 0 0 0 0 0 0 0 0 0 0 0 0 0 0 0 0 0 0 0 0 0 0 0 0 0 0 0 0 0 0 0 0
    0 0 0 0 0 0 0 0 0 0 0 0 0 0 0 0 0 0 0 0 0 0 0 0 0 0 0 0 0 0 0 0 0 0
    0 0 0 0 0 0 0 0 0 0 0 0 0 0 0 0 0 0 0 0 0 0 0 0 0 0 0 0 0 0 0 0 0 0
    0 0 0 0 0 0 0 0 0 0 0 0 0 0 0 0 0 0 0 0 0 0 0 0 0 0 0 0 0 0 0 0 0 0
    0 0 0 0 0 0 0 0 0 0 0 0 0 0 0 0 0 0 0 0 0 0 0 0 0 0 0 0 0 0 0 0 0 0
    0 0 0 0 0 0 0 0 0 0 0 0 0 0 0 0 0 0 0 0 0 0 0 0 0 0 0 0 0 0 0 0 0 0
    0 0 0 0 0 0 0 0 0 0 0 0 0 0 0 0 0 0 0 0 0 0 0 0 0 0 0 0 0 0 0 0 0 0
    0 0 0 0 0 0 0 0 0 0 0 0 0 0 0 0 0 0 0 0 0 0 0 0 0 0 0 0 0 0 0 0 0 0
    0 0 0 0 0 0 0 0 0 0 0 0 0 0 0 0 0 0 0 0 0 0 0 0 0 0 0 0 0 0 0 0 0 0
    0 0 0 0 0 0 0 0 0 0 0 0 0 0 0 0 0 0 0 0 0 0 0 0 0 0 0 0 0 0 0 0 0 0
    0 0 0 0 0 0 0 0 0 0 0 0 0 0 0 0 0 0 0 0 0 0 0 0 0 0 0 0 0 0 0 0 0 0
    0 0 0 0 0 0 0 0 0 0 0 0 0 0 0 0 0 0 0 0 0 0 0 0 0 0 0 0 0 0 0 0 0 0
    0 0 0 0 0 0 0 0 0 0 0 0 0 0 0 0 0 0 0 0 0 0 0 0 0 0 0 0 0 0 0 0 0 0
    0 0 0 0 0 0 0 0 0 0 0 0 0 0 0 0 0 0 0 0 0 0 0 0 0 0 0 0 0 0 0 0 0 0
    0 0 0 0 0 0 0 0 0 0 0 0 0 0 0 0 0 0</cat_ofs>
  <class_labels>
    0 1 2 3 4 5 6 7 8 9</class_labels>
  <missing_subst>
    0. 0. 0. 0. 0. 0. 0. 0. 0. 0. 0. 0. 0. 0. 0. 0. 0. 0. 0. 0. 0. 0. 0.
    0. 0. 0. 0. 0. 0. 0. 0. 0. 0. 0. 0. 0. 0. 0. 0. 0. 0. 0. 0. 0. 0. 0.
    0. 0. 0. 0. 0. 0. 0. 0. 0. 0. 0. 0. 0. 0. 0. 0. 0. 0. 0. 0. 0. 0. 0.
    0. 0. 0. 0. 0. 0. 0. 0. 0. 0. 0. 0. 0. 0. 0. 0. 0. 0. 0. 0. 0. 0. 0.
    0. 0. 0. 0. 0. 0. 0. 0. 0. 0. 0. 0. 0. 0. 0. 0. 0. 0. 0. 0. 0. 0. 0.
    0. 0. 0. 0. 0. 0. 0. 0. 0. 0. 0. 0. 0. 0. 0. 0. 0. 0. 0. 0. 0. 0. 0.
    0. 0. 0. 0. 0. 0. 0. 0. 0. 0. 0. 0. 0. 0. 0. 0. 0. 0. 0. 0. 0. 0. 0.
    0. 0. 0. 0. 0. 0. 0. 0. 0. 0. 0. 0. 0. 0. 0. 0. 0. 0. 0. 0. 0. 0. 0.
    0. 0. 0. 0. 0. 0. 0. 0. 0. 0. 0. 0. 0. 0. 0. 0. 0. 0. 0. 0. 0. 0. 0.
    0. 0. 0. 0. 0. 0. 0. 0. 0. 0. 0. 0. 0. 0. 0. 0. 0. 0. 0. 0. 0. 0. 0.
    0. 0. 0. 0. 0. 0. 0. 0. 0. 0. 0. 0. 0. 0. 0. 0. 0. 0. 0. 0. 0. 0. 0.
    0. 0. 0. 0. 0. 0. 0. 0. 0. 0. 0. 0. 0. 0. 0. 0. 0. 0. 0. 0. 0. 0. 0.
    0. 0. 0. 0. 0. 0. 0. 0. 0. 0. 0. 0. 0. 0. 0. 0. 0. 0. 0. 0. 0. 0. 0.
    0. 0. 0. 0. 0. 0. 0. 0. 0. 0. 0. 0. 0. 0. 0. 0. 0. 0. 0. 0. 0. 0. 0.
    0. 0. 0. 0. 0. 0. 0. 0. 0. 0. 0. 0. 0. 0. 0. 0. 0. 0. 0. 0. 0. 0. 0.
    0. 0. 0. 0. 0. 0. 0. 0. 0. 0. 0. 0. 0. 0. 0. 0. 0. 0. 0. 0. 0. 0. 0.
    0. 0. 0. 0. 0. 0. 0. 0. 0. 0. 0. 0. 0. 0. 0. 0. 0. 0. 0. 0. 0. 0. 0.
    0. 0. 0. 0. 0. 0. 0. 0. 0. 0.</missing_subst>
  <ntrees>100</ntrees>
  <trees>
    <_>
      <nodes>
        <_>
          <depth>0</depth>
          <value>1.0986122886681253e+00</value>
          <splits>
            <_><var>211</var>
              <quality>7.9636579751968384e-01</quality>
              <le>5.0000000000000000e-01</le></_></splits></_>
        <_>
          <depth>1</depth>
          <value>-3.5534074074564714e-02</value></_>
        <_>
          <depth>1</depth>
          <value>2.5204821671897344e+00</value></_></nodes></_>
    <_>
      <nodes>
        <_>
          <depth>0</depth>
          <value>4.2455749556481114e-08</value>
          <splits>
            <_><var>245</var>
              <quality>3.7312328815460205e-01</quality>
              <le>6.1500000000000000e+01</le></_></splits></_>
        <_>
          <depth>1</depth>
          <value>7.4778285139896861e-01</value></_>
        <_>
          <depth>1</depth>
          <value>-6.7565223334516744e-01</value></_></nodes></_>
    <_>
      <nodes>
        <_>
          <depth>0</depth>
          <value>-2.7560948599369100e-09</value>
          <splits>
            <_><var>230</var>
              <quality>3.1849491596221924e-01</quality>
              <le>6.0500000000000000e+01</le></_></splits></_>
        <_>
          <depth>1</depth>
          <value>-3.6612850273435865e-01</value></_>
        <_>
          <depth>1</depth>
          <value>1.5184450836628196e+00</value></_></nodes></_>
    <_>
      <nodes>
        <_>
          <depth>0</depth>
          <value>-4.8482635666745572e-02</value>
          <splits>
            <_><var>308</var>
              <quality>3.1755039095878601e-01</quality>
              <le>2.4250000000000000e+02</le></_></splits></_>
        <_>
          <depth>1</depth>
          <value>4.4646693650732361e-01</value></_>
        <_>
          <depth>1</depth>
          <value>-9.8606868495642508e-01</value></_></nodes></_>
    <_>
      <nodes>
        <_>
          <depth>0</depth>
          <value>1.1068730852658816e-02</value>
          <splits>
            <_><var>175</var>
              <quality>1.8370315432548523e-01</quality>
              <le>1.4500000000000000e+01</le></_></splits></_>
        <_>
          <depth>1</depth>
          <value>5.0402137680115056e-01</value></_>
        <_>
          <depth>1</depth>
          <value>-4.3716552761673905e-01</value></_></nodes></_>
    <_>
      <nodes>
        <_>
          <depth>0</depth>
          <value>6.5713978710164162e-04</value>
          <splits>
            <_><var>329</var>
              <quality>1.7776128649711609e-01</quality>
              <le>1.4050000000000000e+02</le></_></splits></_>
        <_>
          <depth>1</depth>
          <value>4.8410739019035615e-01</value></_>
        <_>
          <depth>1</depth>
          <value>-4.3844222577060221e-01</value></_></nodes></_>
    <_>
      <nodes>
        <_>
          <depth>0</depth>
          <value>4.9991808422244427e-03</value>
          <splits>
            <_><var>171</var>
              <quality>1.5122540295124054e-01</quality>
              <le>9.4500000000000000e+01</le></_></splits></_>
        <_>
          <depth>1</depth>
          <value>-2.6480572015619613e-01</value></_>
        <_>
          <depth>1</depth>
          <value>6.9771109555738964e-01</value></_></nodes></_>
    <_>
      <nodes>
        <_>
          <depth>0</depth>
          <value>2.5680706328695575e-03</value>
          <splits>
            <_><var>92</var>
              <quality>1.3258719444274902e-01</quality>
              <le>1.0500000000000000e+01</le></_></splits></_>
        <_>
          <depth>1</depth>
          <value>6.4439040371688028e-01</value></_>
        <_>
          <depth>1</depth>
          <value>-2.4720030846839727e-01</value></_></nodes></_>
    <_>
      <nodes>
        <_>
          <depth>0</depth>
          <value>3.0397849642911268e-03</value>
          <splits>
            <_><var>176</var>
              <quality>1.4645998179912567e-01</quality>
              <le>8.0500000000000000e+01</le></_></splits></_>
        <_>
          <depth>1</depth>
          <value>2.3826824540251851e-01</value></_>
        <_>
          <depth>1</depth>
          <value>-7.9371265522018930e-01</value></_></nodes></_>
    <_>
      <nodes>
        <_>
          <depth>0</depth>
          <value>-2.2499848011280576e-03</value>
          <splits>
            <_><var>167</var>
              <quality>1.5008275210857391e-01</quality>
              <le>1.5000000000000000e+00</le></_></splits></_>
        <_>
          <depth>1</depth>
          <value>8.5931069973369723e-01</value></_>
        <_>
          <depth>1</depth>
          <value>-2.3182418967259266e-01</value></_></nodes></_>
    <_>
      <nodes>
        <_>
          <depth>0</depth>
          <value>2.1702242867072427e-03</value>
          <splits>
            <_><var>153</var>
              <quality>1.1770462989807129e-01</quality>
              <le>1.6050000000000000e+02</le></_></splits></_>
        <_>
          <depth>1</depth>
          <value>3.4281613207542844e-01</value></_>
        <_>
          <depth>1</depth>
          <value>-3.9500301800039039e-01</value></_></nodes></_>
    <_>
      <nodes>
        <_>
          <depth>0</depth>
          <value>2.1497083129751941e-03</value>
          <splits>
            <_><var>194</var>
              <quality>9.2371217906475067e-02</quality>
              <le>2.4450000000000000e+02</le></_></splits></_>
        <_>
          <depth>1</depth>
          <value>-1.4777374010069452e-01</value></_>
        <_>
          <depth>1</depth>
          <value>7.8463416454143764e-01</value></_></nodes></_>
    <_>
      <nodes>
        <_>
          <depth>0</depth>
          <value>5.0085328452412837e-03</value>
          <splits>
            <_><var>210</var>
              <quality>8.2123197615146637e-02</quality>
              <le>6.7500000000000000e+01</le></_></splits></_>
        <_>
          <depth>1</depth>
          <value>-9.4632545684295161e-02</value></_>
        <_>
          <depth>1</depth>
          <value>1.3484544490879580e+00</value></_></nodes></_>
    <_>
      <nodes>
        <_>
          <depth>0</depth>
          <value>-1.7725843970730317e-02</value>
          <splits>
            <_><var>112</var>
              <quality>1.0403905808925629e-01</quality>
              <le>3.6500000000000000e+01</le></_></splits></_>
        <_>
          <depth>1</depth>
          <value>5.5022975651823047e-01</value></_>
        <_>
          <depth>1</depth>
          <value>-2.3233081118025464e-01</value></_></nodes></_>
    <_>
      <nodes>
        <_>
          <depth>0</depth>
          <value>3.1262558133266084e-03</value>
          <splits>
            <_><var>224</var>
              <quality>1.0723724216222763e-01</quality>
              <le>5.0000000000000000e-01</le></_></splits></_>
        <_>
          <depth>1</depth>
          <value>3.4678493514039432e-01</value></_>
        <_>
          <depth>1</depth>
          <value>-3.5238446607071799e-01</value></_></nodes></_>
    <_>
      <nodes>
        <_>
          <depth>0</depth>
          <value>3.7435066122710396e-04</value>
          <splits>
            <_><var>328</var>
              <quality>1.3262173533439636e-01</quality>
              <le>1.8550000000000000e+02</le></_></splits></_>
        <_>
          <depth>1</depth>
          <value>3.2218091474578125e-01</value></_>
        <_>
          <depth>1</depth>
          <value>-4.8259836748049262e-01</value></_></nodes></_>
    <_>
      <nodes>
        <_>
          <depth>0</depth>
          <value>9.1028871833174312e-03</value>
          <splits>
            <_><var>267</var>
              <quality>1.1763438582420349e-01</quality>
              <le>47.</le></_></splits></_>
        <_>
          <depth>1</depth>
          <value>3.9376719318406500e-01</value></_>
        <_>
          <depth>1</depth>
          <value>-3.4223024645456696e-01</value></_></nodes></_>
    <_>
      <nodes>
        <_>
          <depth>0</depth>
          <value>-4.6314935514412394e-03</value>
          <splits>
            <_><var>250</var>
              <quality>1.2836956977844238e-01</quality>
              <le>1.7550000000000000e+02</le></_></splits></_>
        <_>
          <depth>1</depth>
          <value>-1.8891413872105942e-01</value></_>
        <_>
          <depth>1</depth>
          <value>9.4492732931746237e-01</value></_></nodes></_>
    <_>
      <nodes>
        <_>
          <depth>0</depth>
          <value>2.0956960585016534e-03</value>
          <splits>
            <_><var>106</var>
              <quality>1.1645521223545074e-01</quality>
              <le>5.0000000000000000e-01</le></_></splits></_>
        <_>
          <depth>1</depth>
          <value>-2.8722384319492544e-01</value></_>
        <_>
          <depth>1</depth>
          <value>4.6881860889010868e-01</value></_></nodes></_>
    <_>
      <nodes>
        <_>
          <depth>0</depth>
          <value>2.2595617910264355e-03</value>
          <splits>
            <_><var>204</var>
              <quality>1.2025555223226547e-01</quality>
              <le>1.0050000000000000e+02</le></_></splits></_>
        <_>
          <depth>1</depth>
          <value>2.7128752636159825e-01</value></_>
        <_>
          <depth>1</depth>
          <value>-5.2279104635951856e-01</value></_></nodes></_>
    <_>
      <nodes>
        <_>
          <depth>0</depth>
          <value>-3.1712019265684823e-03</value>
          <splits>
            <_><var>367</var>
              <quality>9.9425889551639557e-02</quality>
              <le>5.0000000000000000e-01</le></_></splits></_>
        <_>
          <depth>1</depth>
          <value>-1.0975815603717841e-01</value></_>
        <_>
          <depth>1</depth>
          <value>2.3644595793707368e+00</value></_></nodes></_>
    <_>
      <nodes>
        <_>
          <depth>0</depth>
          <value>3.1336030254242547e-03</value>
          <splits>
            <_><var>313</var>
              <quality>1.0754127800464630e-01</quality>
              <le>1.8150000000000000e+02</le></_></splits></_>
        <_>
          <depth>1</depth>
          <value>-1.8701962431259009e-01</value></_>
        <_>
          <depth>1</depth>
          <value>7.0142467292556876e-01</value></_></nodes></_>
    <_>
      <nodes>
        <_>
          <depth>0</depth>
          <value>4.6188918519435547e-03</value>
          <splits>
            <_><var>154</var>
              <quality>1.0881055146455765e-01</quality>
              <le>1.8500000000000000e+01</le></_></splits></_>
        <_>
          <depth>1</depth>
          <value>5.7379022741967101e-01</value></_>
        <_>
          <depth>1</depth>
          <value>-2.2198038667095885e-01</value></_></nodes></_>
    <_>
      <nodes>
        <_>
          <depth>0</depth>
          <value>-2.1651025072976743e-04</value>
          <splits>
            <_><var>307</var>
              <quality>1.1650285124778748e-01</quality>
              <le>1.6500000000000000e+01</le></_></splits></_>
        <_>
          <depth>1</depth>
          <value>6.0093217260368703e-01</value></_>
        <_>
          <depth>1</depth>
          <value>-2.3228689443831346e-01</value></_></nodes></_>
    <_>
      <nodes>
        <_>
          <depth>0</depth>
          <value>6.4018704081708492e-03</value>
          <splits>
            <_><var>204</var>
              <quality>1.0523087531328201e-01</quality>
              <le>2.1950000000000000e+02</le></_></splits></_>
        <_>
          <depth>1</depth>
          <value>1.5309266259310736e-01</value></_>
        <_>
          <depth>1</depth>
          <value>-9.8352485638223286e-01</value></_></nodes></_>
    <_>
      <nodes>
        <_>
          <depth>0</depth>
          <value>9.0216924550775212e-04</value>
          <splits>
            <_><var>227</var>
              <quality>9.5325507223606110e-02</quality>
              <le>221.</le></_></splits></_>
        <_>
          <depth>1</depth>
          <value>1.7664982095914689e-01</value></_>
        <_>
          <depth>1</depth>
          <value>-6.5650245192108347e-01</value></_></nodes></_>
    <_>
      <nodes>
        <_>
          <depth>0</depth>
          <value>1.1595737414647378e-03</value>
          <splits>
            <_><var>191</var>
              <quality>9.6916086971759796e-02</quality>
              <le>18.</le></_></splits></_>
        <_>
          <depth>1</depth>
          <value>-2.0755667352863230e-01</value></_>
        <_>
          <depth>1</depth>
          <value>5.4470053539386554e-01</value></_></nodes></_>
    <_>
      <nodes>
        <_>
          <depth>0</depth>
          <value>-3.0060284465406907e-03</value>
          <splits>
            <_><var>348</var>
              <quality>1.2239070981740952e-01</quality>
              <le>5.5000000000000000e+00</le></_></splits></_>
        <_>
          <depth>1</depth>
          <value>3.5595022418631983e-01</value></_>
        <_>
          <depth>1</depth>
          <value>-3.9634389436014261e-01</value></_></nodes></_>
    <_>
      <nodes>
        <_>
          <depth>0</depth>
          <value>4.6723529924363304e-03</value>
          <splits>
            <_><var>197</var>
              <quality>8.7115772068500519e-02</quality>
              <le>91.</le></_></splits></_>
        <_>
          <depth>1</depth>
          <value>1.0010308351271928e-01</value></_>
        <_>
          <depth>1</depth>
          <value>-1.9387093202357926e+00</value></_></nodes></_>
    <_>
      <nodes>
        <_>
          <depth>0</depth>
          <value>3.3375896074127730e-03</value>
          <splits>
            <_><var>151</var>
              <quality>8.4940813481807709e-02</quality>
              <le>2.2750000000000000e+02</le></_></splits></_>
        <_>
          <depth>1</depth>
          <value>1.8135216013360594e-01</value></_>
        <_>
          <depth>1</depth>
          <value>-5.5528608739388940e-01</value></_></nodes></_>
    <_>
      <nodes>
        <_>
          <depth>0</depth>
          <value>-4.5630181242873924e-04</value>
          <splits>
            <_><var>190</var>
              <quality>9.6832506358623505e-02</quality>
              <le>6.5000000000000000e+00</le></_></splits></_>
        <_>
          <depth>1</depth>
          <value>-2.2422229504651650e-01</value></_>
        <_>
          <depth>1</depth>
          <value>5.0076507326906161e-01</value></_></nodes></_>
    <_>
      <nodes>
        <_>
          <depth>0</depth>
          <value>-3.5876784873906230e-03</value>
          <splits>
            <_><var>269</var>
              <quality>8.3343841135501862e-02</quality>
              <le>7.5500000000000000e+01</le></_></splits></_>
        <_>
          <depth>1</depth>
          <value>-2.3908208048950763e-01</value></_>
        <_>
          <depth>1</depth>
          <value>3.9551945499375335e-01</value></_></nodes></_>
    <_>
      <nodes>
        <_>
          <depth>0</depth>
          <value>5.0038185481126396e-03</value>
          <splits>
            <_><var>288</var>
              <quality>1.1618620902299881e-01</quality>
              <le>2.4350000000000000e+02</le></_></splits></_>
        <_>
          <depth>1</depth>
          <value>2.1368284226028109e-01</value></_>
        <_>
          <depth>1</depth>
          <value>-6.7775241887919291e-01</value></_></nodes></_>
    <_>
      <nodes>
        <_>
          <depth>0</depth>
          <value>-3.5461942131405642e-04</value>
          <splits>
            <_><var>85</var>
              <quality>9.2094570398330688e-02</quality>
              <le>5.0000000000000000e-01</le></_></splits></_>
        <_>
          <depth>1</depth>
          <value>-1.1623256945782993e-01</value></_>
        <_>
          <depth>1</depth>
          <value>1.2213854633000305e+00</value></_></nodes></_>
    <_>
      <nodes>
        <_>
          <depth>0</depth>
          <value>1.9863060959831335e-03</value>
          <splits>
            <_><var>225</var>
              <quality>7.0528291165828705e-02</quality>
              <le>1.2950000000000000e+02</le></_></splits></_>
        <_>
          <depth>1</depth>
          <value>2.5246026673889888e-01</value></_>
        <_>
          <depth>1</depth>
          <value>-3.1033419613376151e-01</value></_></nodes></_>
    <_>
      <nodes>
        <_>
          <depth>0</depth>
          <value>-2.8621584878378778e-03</value>
          <splits>
            <_><var>327</var>
              <quality>1.0192312300205231e-01</quality>
              <le>5.0000000000000000e-01</le></_></splits></_>
        <_>
          <depth>1</depth>
          <value>5.7012959281252651e-01</value></_>
        <_>
          <depth>1</depth>
          <value>-2.1299297555412064e-01</value></_></nodes></_>
    <_>
      <nodes>
        <_>
          <depth>0</depth>
          <value>5.7284869241177178e-03</value>
          <splits>
            <_><var>230</var>
              <quality>8.4225624799728394e-02</quality>
              <le>6.7500000000000000e+01</le></_></splits></_>
        <_>
          <depth>1</depth>
          <value>-9.2743838502197654e-02</value></_>
        <_>
          <depth>1</depth>
          <value>1.5174016720197963e+00</value></_></nodes></_>
    <_>
      <nodes>
        <_>
          <depth>0</depth>
          <value>-5.2462758888151464e-03</value>
          <splits>
            <_><var>71</var>
              <quality>9.3071103096008301e-02</quality>
              <le>234.</le></_></splits></_>
        <_>
          <depth>1</depth>
          <value>-1.2627552201244793e-01</value></_>
        <_>
          <depth>1</depth>
          <value>1.1229383258313212e+00</value></_></nodes></_>
    <_>
      <nodes>
        <_>
          <depth>0</depth>
          <value>-6.4165116675689337e-04</value>
          <splits>
            <_><var>247</var>
              <quality>6.7453593015670776e-02</quality>
              <le>2.2750000000000000e+02</le></_></splits></_>
        <_>
          <depth>1</depth>
          <value>1.2425798919358112e-01</value></_>
        <_>
          <depth>1</depth>
          <value>-6.5063762407056347e-01</value></_></nodes></_>
    <_>
      <nodes>
        <_>
          <depth>0</depth>
          <value>3.3349219260040979e-03</value>
          <splits>
            <_><var>270</var>
              <quality>7.3623776435852051e-02</quality>
              <le>1.9550000000000000e+02</le></_></splits></_>
        <_>
          <depth>1</depth>
          <value>-1.5080438812992192e-01</value></_>
        <_>
          <depth>1</depth>
          <value>5.6242329814958880e-01</value></_></nodes></_>
    <_>
      <nodes>
        <_>
          <depth>0</depth>
          <value>1.5649402555307295e-03</value>
          <splits>
            <_><var>287</var>
              <quality>9.2806674540042877e-02</quality>
              <le>35.</le></_></splits></_>
        <_>
          <depth>1</depth>
          <value>3.8761228793332847e-01</value></_>
        <_>
          <depth>1</depth>
          <value>-2.7049811950708352e-01</value></_></nodes></_>
    <_>
      <nodes>
        <_>
          <depth>0</depth>
          <value>1.8739111325227149e-04</value>
          <splits>
            <_><var>244</var>
              <quality>1.1285878717899323e-01</quality>
              <le>1.7500000000000000e+01</le></_></splits></_>
        <_>
          <depth>1</depth>
          <value>3.7590949197565604e-01</value></_>
        <_>
          <depth>1</depth>
          <value>-3.4373370098137568e-01</value></_></nodes></_>
    <_>
      <nodes>
        <_>
          <depth>0</depth>
          <value>-2.4257303619585092e-03</value>
          <splits>
            <_><var>290</var>
              <quality>8.2061327993869781e-02</quality>
              <le>7.9500000000000000e+01</le></_></splits></_>
        <_>
          <depth>1</depth>
          <value>-3.1003473876706439e-01</value></_>
        <_>
          <depth>1</depth>
          <value>2.9570770865767021e-01</value></_></nodes></_>
    <_>
      <nodes>
        <_>
          <depth>0</depth>
          <value>8.0913878522449224e-04</value>
          <splits>
            <_><var>145</var>
              <quality>7.8772999346256256e-02</quality>
              <le>2.1850000000000000e+02</le></_></splits></_>
        <_>
          <depth>1</depth>
          <value>-1.1542400064545164e-01</value></_>
        <_>
          <depth>1</depth>
          <value>9.0240256166531452e-01</value></_></nodes></_>
    <_>
      <nodes>
        <_>
          <depth>0</depth>
          <value>2.3199226961228303e-03</value>
          <splits>
            <_><var>170</var>
              <quality>7.6382815837860107e-02</quality>
              <le>12.</le></_></splits></_>
        <_>
          <depth>1</depth>
          <value>-2.8704217280540678e-01</value></_>
        <_>
          <depth>1</depth>
          <value>2.9608454615223628e-01</value></_></nodes></_>
    <_>
      <nodes>
        <_>
          <depth>0</depth>
          <value>2.0285802687407891e-03</value>
          <splits>
            <_><var>49</var>
              <quality>7.1968980133533478e-02</quality>
              <le>55.</le></_></splits></_>
        <_>
          <depth>1</depth>
          <value>-8.2833982881292345e-02</value></_>
        <_>
          <depth>1</depth>
          <value>1.4550908031443013e+00</value></_></nodes></_>
    <_>
      <nodes>
        <_>
          <depth>0</depth>
          <value>2.8621943916188170e-03</value>
          <splits>
            <_><var>288</var>
              <quality>7.2757109999656677e-02</quality>
              <le>1.6050000000000000e+02</le></_></splits></_>
        <_>
          <depth>1</depth>
          <value>2.2764344758966470e-01</value></_>
        <_>
          <depth>1</depth>
          <value>-3.5839379443122799e-01</value></_></nodes></_>
    <_>
      <nodes>
        <_>
          <depth>0</depth>
          <value>-2.2134660963699314e-03</value>
          <splits>
            <_><var>249</var>
              <quality>8.1053823232650757e-02</quality>
              <le>1.9650000000000000e+02</le></_></splits></_>
        <_>
          <depth>1</depth>
          <value>-9.4285771016300216e-02</value></_>
        <_>
          <depth>1</depth>
          <value>1.6382836917807300e+00</value></_></nodes></_>
    <_>
      <nodes>
        <_>
          <depth>0</depth>
          <value>7.2323149308236299e-04</value>
          <splits>
            <_><var>132</var>
              <quality>6.1573509126901627e-02</quality>
              <le>2.4450000000000000e+02</le></_></splits></_>
        <_>
          <depth>1</depth>
          <value>1.3738185590892715e-01</value></_>
        <_>
          <depth>1</depth>
          <value>-5.1854178181067789e-01</value></_></nodes></_>
    <_>
      <nodes>
        <_>
          <depth>0</depth>
          <value>-1.3457559230032707e-03</value>
          <splits>
            <_><var>190</var>
              <quality>7.2678640484809875e-02</quality>
              <le>1.6650000000000000e+02</le></_></splits></_>
        <_>
          <depth>1</depth>
          <value>-9.0239692741277536e-02</value></_>
        <_>
          <depth>1</depth>
          <value>1.2997963446904501e+00</value></_></nodes></_>
    <_>
      <nodes>
        <_>
          <depth>0</depth>
          <value>-4.3518537994064162e-03</value>
          <splits>
            <_><var>71</var>
              <quality>8.0096356570720673e-02</quality>
              <le>5.1500000000000000e+01</le></_></splits></_>
        <_>
          <depth>1</depth>
          <value>2.5495485035493259e-01</value></_>
        <_>
          <depth>1</depth>
          <value>-3.4996183912028828e-01</value></_></nodes></_>
    <_>
      <nodes>
        <_>
          <depth>0</depth>
          <value>6.3881335968570723e-03</value>
          <splits>
            <_><var>312</var>
              <quality>9.3900151550769806e-02</quality>
              <le>1.1250000000000000e+02</le></_></splits></_>
        <_>
          <depth>1</depth>
          <value>-2.7471625862149618e-01</value></_>
        <_>
          <depth>1</depth>
          <value>3.8440678646710391e-01</value></_></nodes></_>
    <_>
      <nodes>
        <_>
          <depth>0</depth>
          <value>-4.3047479867507066e-04</value>
          <splits>
            <_><var>252</var>
              <quality>7.9155735671520233e-02</quality>
              <le>8.5500000000000000e+01</le></_></splits></_>
        <_>
          <depth>1</depth>
          <value>-2.9653403225029423e-01</value></_>
        <_>
          <depth>1</depth>
          <value>2.9770571211700680e-01</value></_></nodes></_>
    <_>
      <nodes>
        <_>
          <depth>0</depth>
          <value>-2.0783054162890353e-03</value>
          <splits>
            <_><var>154</var>
              <quality>9.2666909098625183e-02</quality>
              <le>4.0500000000000000e+01</le></_></splits></_>
        <_>
          <depth>1</depth>
          <value>4.0029934416029123e-01</value></_>
        <_>
          <depth>1</depth>
          <value>-2.6313978910106145e-01</value></_></nodes></_>
    <_>
      <nodes>
        <_>
          <depth>0</depth>
          <value>6.0132064949312437e-03</value>
          <splits>
            <_><var>208</var>
              <quality>7.5510457158088684e-02</quality>
              <le>2.0050000000000000e+02</le></_></splits></_>
        <_>
          <depth>1</depth>
          <value>1.3347011827596453e-01</value></_>
        <_>
          <depth>1</depth>
          <value>-7.2701932570393246e-01</value></_></nodes></_>
    <_>
      <nodes>
        <_>
          <depth>0</depth>
          <value>3.3992295507244965e-03</value>
          <splits>
            <_><var>285</var>
              <quality>7.5569212436676025e-02</quality>
              <le>3.2500000000000000e+01</le></_></splits></_>
        <_>
          <depth>1</depth>
          <value>3.5054090733193316e-01</value></_>
        <_>
          <depth>1</depth>
          <value>-2.3960860404065984e-01</value></_></nodes></_>
    <_>
      <nodes>
        <_>
          <depth>0</depth>
          <value>2.9873037241599353e-03</value>
          <splits>
            <_><var>184</var>
              <quality>5.9287354350090027e-02</quality>
              <le>2.1950000000000000e+02</le></_></splits></_>
        <_>
          <depth>1</depth>
          <value>9.4798681387322392e-02</value></_>
        <_>
          <depth>1</depth>
          <value>-8.2684733458387760e-01</value></_></nodes></_>
    <_>
      <nodes>
        <_>
          <depth>0</depth>
          <value>-2.2127212365250235e-03</value>
          <splits>
            <_><var>226</var>
              <quality>8.3280660212039948e-02</quality>
              <le>4.9500000000000000e+01</le></_></splits></_>
        <_>
          <depth>1</depth>
          <value>3.6224506256800543e-01</value></_>
        <_>
          <depth>1</depth>
          <value>-2.5874100085017515e-01</value></_></nodes></_>
    <_>
      <nodes>
        <_>
          <depth>0</depth>
          <value>3.1335799868268109e-03</value>
          <splits>
            <_><var>210</var>
              <quality>7.0968672633171082e-02</quality>
              <le>9.5500000000000000e+01</le></_></splits></_>
        <_>
          <depth>1</depth>
          <value>-7.9219802622080102e-02</value></_>
        <_>
          <depth>1</depth>
          <value>1.5398032116850187e+00</value></_></nodes></_>
    <_>
      <nodes>
        <_>
          <depth>0</depth>
          <value>-2.7961931485622348e-03</value>
          <splits>
            <_><var>327</var>
              <quality>6.9505721330642700e-02</quality>
              <le>6.0500000000000000e+01</le></_></splits></_>
        <_>
          <depth>1</depth>
          <value>2.9370038281378935e-01</value></_>
        <_>
          <depth>1</depth>
          <value>-2.6239435790868387e-01</value></_></nodes></_>
    <_>
      <nodes>
        <_>
          <depth>0</depth>
          <value>3.3059843059204293e-03</value>
          <splits>
            <_><var>53</var>
              <quality>8.8967598974704742e-02</quality>
              <le>12.</le></_></splits></_>
        <_>
          <depth>1</depth>
          <value>-1.4639811009365816e-01</value></_>
        <_>
          <depth>1</depth>
          <value>7.4688995306444239e-01</value></_></nodes></_>
    <_>
      <nodes>
        <_>
          <depth>0</depth>
          <value>2.1587831412562815e-03</value>
          <splits>
            <_><var>105</var>
              <quality>6.3854597508907318e-02</quality>
              <le>3.0500000000000000e+01</le></_></splits></_>
        <_>
          <depth>1</depth>
          <value>-1.0970160308435388e-01</value></_>
        <_>
          <depth>1</depth>
          <value>7.0164725283688523e-01</value></_></nodes></_>
    <_>
      <nodes>
        <_>
          <depth>0</depth>
          <value>2.5759159744369346e-03</value>
          <splits>
            <_><var>176</var>
              <quality>7.7380284667015076e-02</quality>
              <le>48.</le></_></splits></_>
        <_>
          <depth>1</depth>
          <value>1.9874684304666593e-01</value></_>
        <_>
          <depth>1</depth>
          <value>-4.4543427429661808e-01</value></_></nodes></_>
    <_>
      <nodes>
        <_>
          <depth>0</depth>
          <value>-2.9892375009220548e-03</value>
          <splits>
            <_><var>109</var>
              <quality>6.5472409129142761e-02</quality>
              <le>5.0000000000000000e-01</le></_></splits></_>
        <_>
          <depth>1</depth>
          <value>5.3132985140421518e-01</value></_>
        <_>
          <depth>1</depth>
          <value>-1.4484004534410766e-01</value></_></nodes></_>
    <_>
      <nodes>
        <_>
          <depth>0</depth>
          <value>4.5643097276910601e-03</value>
          <splits>
            <_><var>187</var>
              <quality>7.3287613689899445e-02</quality>
              <le>2.3350000000000000e+02</le></_></splits></_>
        <_>
          <depth>1</depth>
          <value>1.4419938058854262e-01</value></_>
        <_>
          <depth>1</depth>
          <value>-6.2103460877552352e-01</value></_></nodes></_>
    <_>
      <nodes>
        <_>
          <depth>0</depth>
          <value>3.9286304782878744e-03</value>
          <splits>
            <_><var>290</var>
              <quality>8.0363184213638306e-02</quality>
              <le>2.4050000000000000e+02</le></_></splits></_>
        <_>
          <depth>1</depth>
          <value>-1.3616770863038741e-01</value></_>
        <_>
          <depth>1</depth>
          <value>7.1113775211513153e-01</value></_></nodes></_>
    <_>
      <nodes>
        <_>
          <depth>0</depth>
          <value>-8.0890106578351232e-04</value>
          <splits>
            <_><var>214</var>
              <quality>6.7270137369632721e-02</quality>
              <le>2.4750000000000000e+02</le></_></splits></_>
        <_>
          <depth>1</depth>
          <value>-1.1841110116061541e-01</value></_>
        <_>
          <depth>1</depth>
          <value>6.9979909546922536e-01</value></_></nodes></_>
    <_>
      <nodes>
        <_>
          <depth>0</depth>
          <value>-1.0559022064170320e-03</value>
          <splits>
            <_><var>96</var>
              <quality>6.4769364893436432e-02</quality>
              <le>8.</le></_></splits></_>
        <_>
          <depth>1</depth>
          <value>-1.2677278876923867e-01</value></_>
        <_>
          <depth>1</depth>
          <value>6.1016699699688060e-01</value></_></nodes></_>
    <_>
      <nodes>
        <_>
          <depth>0</depth>
          <value>-2.7166437890804029e-03</value>
          <splits>
            <_><var>225</var>
              <quality>6.6250160336494446e-02</quality>
              <le>1.3250000000000000e+02</le></_></splits></_>
        <_>
          <depth>1</depth>
          <value>2.1692681406346917e-01</value></_>
        <_>
          <depth>1</depth>
          <value>-3.3740184323544148e-01</value></_></nodes></_>
    <_>
      <nodes>
        <_>
          <depth>0</depth>
          <value>1.9600042358974188e-03</value>
          <splits>
            <_><var>308</var>
              <quality>7.8990884125232697e-02</quality>
              <le>2.</le></_></splits></_>
        <_>
          <depth>1</depth>
          <value>7.5622456433796847e-01</value></_>
        <_>
          <depth>1</depth>
          <value>-1.2930969713995236e-01</value></_></nodes></_>
    <_>
      <nodes>
        <_>
          <depth>0</depth>
          <value>1.1944040858425874e-03</value>
          <splits>
            <_><var>203</var>
              <quality>7.7262766659259796e-02</quality>
              <le>5.5000000000000000e+00</le></_></splits></_>
        <_>
          <depth>1</depth>
          <value>1.6629389691383034e-01</value></_>
        <_>
          <depth>1</depth>
          <value>-5.4399223174864186e-01</value></_></nodes></_>
    <_>
      <nodes>
        <_>
          <depth>0</depth>
          <value>-1.0889807023110438e-03</value>
          <splits>
            <_><var>191</var>
              <quality>6.9158688187599182e-02</quality>
              <le>1.0500000000000000e+01</le></_></splits></_>
        <_>
          <depth>1</depth>
          <value>-1.6653848472829422e-01</value></_>
        <_>
          <depth>1</depth>
          <value>4.7599675029814137e-01</value></_></nodes></_>
    <_>
      <nodes>
        <_>
          <depth>0</depth>
          <value>-1.0679329194843068e-03</value>
          <splits>
            <_><var>208</var>
              <quality>7.5173281133174896e-02</quality>
              <le>253.</le></_></splits></_>
        <_>
          <depth>1</depth>
          <value>8.9294181143677515e-02</value></_>
        <_>
          <depth>1</depth>
          <value>-1.3721910821180139e+00</value></_></nodes></_>
    <_>
      <nodes>
        <_>
          <depth>0</depth>
          <value>5.3715470361473394e-03</value>
          <splits>
            <_><var>249</var>
              <quality>8.3972871303558350e-02</quality>
              <le>2.</le></_></splits></_>
        <_>
          <depth>1</depth>
          <value>-2.0924509201298475e-01</value></_>
        <_>
          <depth>1</depth>
          <value>4.5133892295759415e-01</value></_></nodes></_>
    <_>
      <nodes>
        <_>
          <depth>0</depth>
          <value>-1.8379443887973266e-03</value>
          <splits>
            <_><var>248</var>
              <quality>8.2030817866325378e-02</quality>
              <le>8.4500000000000000e+01</le></_></splits></_>
        <_>
          <depth>1</depth>
          <value>1.6732430821114008e-01</value></_>
        <_>
          <depth>1</depth>
          <value>-5.7231771942576826e-01</value></_></nodes></_>
    <_>
      <nodes>
        <_>
          <depth>0</depth>
          <value>5.6348875500144106e-03</value>
          <splits>
            <_><var>264</var>
              <quality>7.3003530502319336e-02</quality>
              <le>188.</le></_></splits></_>
        <_>
          <depth>1</depth>
          <value>1.5590233778148127e-01</value></_>
        <_>
          <depth>1</depth>
          <value>-5.6267608634479060e-01</value></_></nodes></_>
    <_>
      <nodes>
        <_>
          <depth>0</depth>
          <value>3.4453073108707950e-04</value>
          <splits>
            <_><var>295</var>
              <quality>6.7540161311626434e-02</quality>
              <le>230.</le></_></splits></_>
        <_>
          <depth>1</depth>
          <value>-8.0143330487987829e-02</value></_>
        <_>
          <depth>1</depth>
          <value>1.4010472445893978e+00</value></_></nodes></_>
    <_>
      <nodes>
        <_>
          <depth>0</depth>
          <value>2.7422477776697265e-03</value>
          <splits>
            <_><var>250</var>
              <quality>7.8410655260086060e-02</quality>
              <le>5.</le></_></splits></_>
        <_>
          <depth>1</depth>
          <value>-2.3141823014911878e-01</value></_>
        <_>
          <depth>1</depth>
          <value>3.7852113994706788e-01</value></_></nodes></_>
    <_>
      <nodes>
        <_>
          <depth>0</depth>
          <value>9.2602217690544264e-04</value>
          <splits>
            <_><var>170</var>
              <quality>7.5124695897102356e-02</quality>
              <le>5.2500000000000000e+01</le></_></splits></_>
        <_>
          <depth>1</depth>
          <value>-2.5972983681696615e-01</value></_>
        <_>
          <depth>1</depth>
          <value>3.2182140253976693e-01</value></_></nodes></_>
    <_>
      <nodes>
        <_>
          <depth>0</depth>
          <value>3.6764796412191432e-03</value>
          <splits>
            <_><var>288</var>
              <quality>8.3397299051284790e-02</quality>
              <le>2.4450000000000000e+02</le></_></splits></_>
        <_>
          <depth>1</depth>
          <value>1.7364911503210559e-01</value></_>
        <_>
          <depth>1</depth>
          <value>-5.7361975541080545e-01</value></_></nodes></_>
    <_>
      <nodes>
        <_>
          <depth>0</depth>
          <value>-4.1691024524197449e-03</value>
          <splits>
            <_><var>153</var>
              <quality>7.0402972400188446e-02</quality>
              <le>1.2050000000000000e+02</le></_></splits></_>
        <_>
          <depth>1</depth>
          <value>2.9784633044913023e-01</value></_>
        <_>
          <depth>1</depth>
          <value>-2.6250886156046016e-01</value></_></nodes></_>
    <_>
      <nodes>
        <_>
          <depth>0</depth>
          <value>-3.3449464772488924e-03</value>
          <splits>
            <_><var>230</var>
              <quality>6.9446869194507599e-02</quality>
              <le>1.4050000000000000e+02</le></_></splits></_>
        <_>
          <depth>1</depth>
          <value>-7.6359968568207301e-02</value></_>
        <_>
          <depth>1</depth>
          <value>5.7564577324623896e+00</value></_></nodes></_>
    <_>
      <nodes>
        <_>
          <depth>0</depth>
          <value>3.0883284413908926e-03</value>
          <splits>
            <_><var>293</var>
              <quality>7.0957288146018982e-02</quality>
              <le>8.4500000000000000e+01</le></_></splits></_>
        <_>
          <depth>1</depth>
          <value>-2.6637303177032556e-01</value></_>
        <_>
          <depth>1</depth>
          <value>2.9496102866889562e-01</value></_></nodes></_>
    <_>
      <nodes>
        <_>
          <depth>0</depth>
          <value>1.0840844169445138e-03</value>
          <splits>
            <_><var>307</var>
              <quality>6.5096758306026459e-02</quality>
              <le>1.3750000000000000e+02</le></_></splits></_>
        <_>
          <depth>1</depth>
          <value>3.1618599488508708e-01</value></_>
        <_>
          <depth>1</depth>
          <value>-2.2746834543770297e-01</value></_></nodes></_>
    <_>
      <nodes>
        <_>
          <depth>0</depth>
          <value>-8.2029742750983851e-04</value>
          <splits>
            <_><var>289</var>
              <quality>7.7809698879718781e-02</quality>
              <le>1.5000000000000000e+00</le></_></splits></_>
        <_>
          <depth>1</depth>
          <value>-4.0493958395460461e-01</value></_>
        <_>
          <depth>1</depth>
          <value>2.1621419549640317e-01</value></_></nodes></_>
    <_>
      <nodes>
        <_>
          <depth>0</depth>
          <value>1.3119277976449506e-03</value>
          <splits>
            <_><var>370</var>
              <quality>6.5716221928596497e-02</quality>
              <le>9.8500000000000000e+01</le></_></splits></_>
        <_>
          <depth>1</depth>
          <value>-6.8068792144953996e-02</value></_>
        <_>
          <depth>1</depth>
          <value>5.7564577324623896e+00</value></_></nodes></_>
    <_>
      <nodes>
        <_>
          <depth>0</depth>
          <value>4.2646392606712014e-03</value>
          <splits>
            <_><var>225</var>
              <quality>7.9568386077880859e-02</quality>
              <le>3.5500000000000000e+01</le></_></splits></_>
        <_>
          <depth>1</depth>
          <value>3.7033222170340824e-01</value></_>
        <_>
          <depth>1</depth>
          <value>-2.3947097000621761e-01</value></_></nodes></_>
    <_>
      <nodes>
        <_>
          <depth>0</depth>
          <value>-6.7017341925200839e-05</value>
          <splits>
            <_><var>112</var>
              <quality>8.4267765283584595e-02</quality>
              <le>59.</le></_></splits></_>
        <_>
          <depth>1</depth>
          <value>3.7503937578853863e-01</value></_>
        <_>
          <depth>1</depth>
          <value>-2.5279768362441335e-01</value></_></nodes></_>
    <_>
      <nodes>
        <_>
          <depth>0</depth>
          <value>4.9732433835218736e-03</value>
          <splits>
            <_><var>47</var>
              <quality>5.9553634375333786e-02</quality>
              <le>40.</le></_></splits></_>
        <_>
          <depth>1</depth>
          <value>-5.8088922257447363e-02</value></_>
        <_>
          <depth>1</depth>
          <value>5.7564577324623896e+00</value></_></nodes></_>
    <_>
      <nodes>
        <_>
          <depth>0</depth>
          <value>4.1149980885088608e-03</value>
          <splits>
            <_><var>217</var>
              <quality>9.1553963720798492e-02</quality>
              <le>18.</le></_></splits></_>
        <_>
          <depth>1</depth>
          <value>1.2683029574945817e-01</value></_>
        <_>
          <depth>1</depth>
          <value>-1.0595061351579498e+00</value></_></nodes></_>
    <_>
      <nodes>
        <_>
          <depth>0</depth>
          <value>-3.8670983591320464e-03</value>
          <splits>
            <_><var>267</var>
              <quality>8.7961554527282715e-02</quality>
              <le>4.8500000000000000e+01</le></_></splits></_>
        <_>
          <depth>1</depth>
          <value>3.1788738400968392e-01</value></_>
        <_>
          <depth>1</depth>
          <value>-3.1078361408086402e-01</value></_></nodes></_>
    <_>
      <nodes>
        <_>
          <depth>0</depth>
          <value>2.7120061775634760e-03</value>
          <splits>
            <_><var>269</var>
              <quality>8.3266690373420715e-02</quality>
              <le>1.2150000000000000e+02</le></_></splits></_>
        <_>
          <depth>1</depth>
          <value>-1.8520572263541094e-01</value></_>
        <_>
          <depth>1</depth>
          <value>5.1566155654372803e-01</value></_></nodes></_>
    <_>
      <nodes>
        <_>
          <depth>0</depth>
          <value>3.2347511063649825e-03</value>
          <splits>
            <_><var>190</var>
              <quality>1.0210999846458435e-01</quality>
              <le>27.</le></_></splits></_>
        <_>
          <depth>1</depth>
          <value>-2.2768377863533798e-01</value></_>
        <_>
          <depth>1</depth>
          <value>5.1852813060650160e-01</value></_></nodes></_>
    <_>
      <nodes>
        <_>
          <depth>0</depth>
          <value>-7.1858916347502199e-04</value>
          <splits>
            <_><var>294</var>
              <quality>9.3893252313137054e-02</quality>
              <le>136.</le></_></splits></_>
        <_>
          <depth>1</depth>
          <value>-1.8078275744135397e-01</value></_>
        <_>
          <depth>1</depth>
          <value>6.2457261236340722e-01</value></_></nodes></_>
    <_>
      <nodes>
        <_>
          <depth>0</depth>
          <value>3.3820982115686038e-03</value>
          <splits>
            <_><var>309</var>
              <quality>7.7631063759326935e-02</quality>
              <le>2.3650000000000000e+02</le></_></splits></_>
        <_>
          <depth>1</depth>
          <value>1.5542025235727108e-01</value></_>
        <_>
          <depth>1</depth>
          <value>-6.0217481725503674e-01</value></_></nodes></_>
    <_>
      <nodes>
        <_>
          <depth>0</depth>
          <value>5.7998676281699139e-03</value>
          <splits>
            <_><var>309</var>
              <quality>9.5773540437221527e-02</quality>
              <le>164.</le></_></splits></_>
        <_>
          <depth>1</depth>
          <value>-3.1088411166283303e-01</value></_>
        <_>
          <depth>1</depth>
          <value>3.4749616580162113e-01</value></_></nodes></_>
    <_>
      <nodes>
        <_>
          <depth>0</depth>
          <value>-4.3149457555614525e-03</value>
          <splits>
            <_><var>213</var>
              <quality>6.6731162369251251e-02</quality>
              <le>213.</le></_></splits></_>
        <_>
          <depth>1</depth>
          <value>-1.6524417248598344e-01</value></_>
        <_>
          <depth>1</depth>
          <value>4.6752454803032750e-01</value></_></nodes></_>
    <_>
      <nodes>
        <_>
          <depth>0</depth>
          <value>1.6283248725385562e-03</value>
          <splits>
            <_><var>205</var>
              <quality>8.4106348454952240e-02</quality>
              <le>3.5500000000000000e+01</le></_></splits></_>
        <_>
          <depth>1</depth>
          <value>3.6025503491984784e-01</value></_>
        <_>
          <depth>1</depth>
          <value>-2.6170598158877645e-01</value></_></nodes></_>
    <_>
      <nodes>
        <_>
          <depth>0</depth>
          <value>-3.6134918506123678e-03</value>
          <splits>
            <_><var>287</var>
              <quality>8.5194073617458344e-02</quality>
              <le>3.7500000000000000e+01</le></_></splits></_>
        <_>
          <depth>1</depth>
          <value>4.0263743747207198e-01</value></_>
        <_>
          <depth>1</depth>
          <value>-2.4063594316748527e-01</value></_></nodes></_>
    <_>
      <nodes>
        <_>
          <depth>0</depth>
          <value>-1.9365904269245660e-03</value>
          <splits>
            <_><var>348</var>
              <quality>8.8373497128486633e-02</quality>
              <le>5.5000000000000000e+00</le></_></splits></_>
        <_>
          <depth>1</depth>
          <value>2.7252342746105512e-01</value></_>
        <_>
          <depth>1</depth>
          <value>-3.6452261393072649e-01</value></_></nodes></_></trees></opencv_ml_boost>
</opencv_storage>
