<?xml version="1.0"?>
<opencv_storage>
<opencv_ml_svm>
  <format>3</format>
  <svmType>C_SVC</svmType>
  <kernel>
    <type>LINEAR</type></kernel>
  <C>2.6699999999999999e+00</C>
  <term_criteria><epsilon>1.1920928955078125e-07</epsilon>
    <iterations>1000</iterations></term_criteria>
  <var_count>3780</var_count>
  <class_count>2</class_count>
  <class_labels type_id="opencv-matrix">
    <rows>2</rows>
    <cols>1</cols>
    <dt>i</dt>
    <data>
      -1 1</data></class_labels>
  <sv_total>1</sv_total>
  <support_vectors>
    <_>
      0. 0. 0. 0. 0. 0. 0. 0. 0. 0. 0. 0. 0. 0. 0. 0. 0. 0. 0. 0. 0. 0.
      0. 0. 0. 0. 0. 0. 0. 0. 0. 0. 0. 0. 0. 0. 2.26276112e-04
      6.36472687e-05 1.37373150e-04 9.20169405e-05 -1.83012162e-03
      -2.16603130e-05 1.48471052e-04 1.55958129e-04 5.93432087e-05
      3.61782452e-03 1.25270616e-03 4.74015810e-03 8.30311980e-03
      -6.39934093e-03 1.37691312e-02 1.63012035e-02 5.71726216e-03
      1.73557503e-03 7.93545587e-06 1.33703827e-04 2.73707876e-04
      1.33775946e-04 -2.93131266e-03 1.56808630e-04 5.06445824e-04
      4.77782924e-05 0. 3.58001469e-03 3.72108119e-03 7.31003797e-03
      6.88846083e-03 -6.39934093e-03 1.34847024e-02 1.85424015e-02
      7.80823966e-03 4.18538693e-03 8.19628476e-04 -7.40592252e-04
      3.44463438e-03 4.60406300e-03 -9.51325055e-03 8.19157716e-03
      1.19358106e-02 4.00416739e-03 9.04309214e-04 -1.51578635e-02
      -1.89437845e-03 2.22652662e-03 1.26934834e-02 3.70210037e-02
      1.94692723e-02 1.89466253e-02 1.08095137e-02 2.70396587e-04
      1.44353556e-03 8.11792153e-04 6.22487301e-03 2.25066510e-03
      -9.76777729e-03 7.72029581e-03 1.12186912e-02 5.21632005e-03
      2.24640151e-03 1.54410489e-03 2.69545731e-03 -1.35966751e-03
      7.28835398e-03 3.47718336e-02 1.53409503e-02 9.36572719e-03
      1.17295431e-02 9.72171500e-03 -3.08442698e-03 7.41638476e-03
      5.32622589e-03 4.89069731e-04 -2.27053836e-02 9.00933240e-03
      1.41699389e-02 3.59591749e-03 -2.33988417e-03 -1.62162352e-02
      6.36286626e-04 6.59337174e-03 -2.05501262e-03 5.29221667e-04
      3.70117882e-03 8.31284560e-03 5.77259948e-03 -8.77606403e-03
      2.94981757e-03 2.26879050e-03 2.69730831e-03 -2.67587113e-03
      -1.82335526e-02 5.57282334e-03 5.99935744e-03 4.79240483e-03
      -5.83703071e-03 4.93343035e-03 -3.35883512e-03 1.63553897e-02
      -4.95416159e-03 5.16750570e-03 -1.68235635e-03 6.69300323e-03
      2.99811573e-03 -5.89739298e-03 -1.22258086e-02 9.10667062e-04
      1.12131005e-02 1.14422105e-02 5.88948838e-03 1.58066060e-02
      8.02844949e-03 6.60081906e-03 9.66515299e-03 -8.00098199e-03
      -1.72856636e-02 -1.91665459e-02 3.80065199e-03 2.41150167e-02
      2.92427931e-02 1.52289802e-02 -1.13829295e-03 2.46597012e-03
      9.18744691e-03 -1.05117625e-02 3.41909914e-03 6.79184962e-03
      6.84517063e-03 3.51057854e-04 6.57491107e-03 -2.65208096e-03
      4.64525353e-03 8.83352477e-03 -3.45113724e-02 -1.80877429e-02
      -5.99559955e-03 8.85550957e-03 1.02144806e-02 1.32647846e-02
      -1.23088993e-03 1.17715960e-02 -2.23955349e-03 -2.63258647e-02
      -2.86171641e-02 3.49145778e-03 1.42648919e-02 2.84578558e-02
      1.66253932e-02 3.40267341e-03 1.06324656e-02 -2.18814309e-03
      -4.01594713e-02 -2.76550371e-02 -7.86518585e-03 1.59988366e-02
      1.89624336e-02 1.91442352e-02 5.70817571e-03 1.25103602e-02
      1.21614775e-02 -2.28484683e-02 -1.80228390e-02 -2.14193854e-03
      2.01553069e-02 2.45519858e-02 2.03292314e-02 6.53297035e-03
      2.07711682e-02 1.03021180e-02 -2.02691723e-02 -2.66561322e-02
      -6.03120029e-03 1.46523230e-02 1.98402200e-02 2.48379856e-02
      4.29206155e-03 5.37582114e-03 -1.18512660e-02 -2.88777184e-02
      -1.84497051e-02 -1.27317896e-02 2.24478617e-02 1.41164837e-02
      1.43328169e-02 6.04808098e-03 2.52622413e-03 -1.21059110e-02
      -2.95081846e-02 -2.34059840e-02 2.54980684e-03 3.13529074e-02
      2.20317617e-02 2.53098011e-02 -6.99555152e-04 -1.49561418e-02
      5.50685357e-03 -2.81858793e-03 -1.30416565e-02 1.09328702e-02
      1.11604119e-02 1.08179487e-02 1.47617282e-02 1.46024646e-02
      -9.54276067e-04 -1.02738775e-02 -1.23169264e-02 -9.46062244e-03
      1.58348959e-02 9.62974969e-03 2.17694193e-02 3.08718551e-02
      1.80950407e-02 -9.38278914e-04 -2.02922393e-02 -2.52179559e-02
      -4.22616489e-03 1.23513434e-02 2.54730023e-02 2.46655215e-02
      2.00504176e-02 -1.31206568e-02 -2.19070185e-02 -3.54013918e-03
      -2.17690114e-02 -5.18345134e-03 6.19406486e-03 1.43608926e-02
      1.20859500e-02 -1.29110049e-02 -1.98608395e-02 -2.19447259e-02
      -2.01505646e-02 -1.58463866e-02 -4.38158307e-03 1.11919641e-02
      6.81952154e-03 2.71423366e-02 2.83100232e-02 9.09337960e-03
      -1.27942758e-02 -8.98385979e-03 -8.47032387e-03 -4.80225217e-03
      8.66031367e-03 6.80483645e-04 2.15296391e-02 5.77051844e-03
      5.78901824e-03 -4.37464379e-03 -6.56245556e-03 -1.21828886e-02
      -1.73409544e-02 -1.12970239e-02 5.00843348e-03 -5.19149355e-04
      -1.80224348e-02 -8.92609544e-03 -1.87591109e-02 -1.41685421e-03
      8.52156372e-04 -1.74397277e-03 9.56674945e-03 2.71461252e-03
      6.96376618e-03 -2.00595409e-02 -7.93990772e-03 -1.30625209e-02
      7.59518798e-03 9.12230927e-03 -8.10411759e-03 -3.48092942e-03
      1.23617854e-02 1.49273165e-02 -6.19224180e-03 -7.16850278e-04
      -2.43105576e-03 1.01079242e-02 1.94060188e-02 1.07260868e-02
      1.29442988e-02 1.72375478e-02 2.39705620e-03 -2.61052493e-02
      -2.03406233e-02 7.55681237e-03 -7.01071788e-03 4.76741372e-03
      8.04401934e-03 1.81443393e-02 8.98645911e-03 6.77695847e-04
      -3.53003740e-02 -1.37897683e-02 7.59657566e-03 4.84436983e-03
      -3.99919646e-03 1.70429647e-02 1.99765749e-02 2.45580096e-02
      5.02186082e-03 -1.82667319e-02 -4.39973688e-03 1.66948438e-02
      4.59521171e-03 1.75987314e-02 8.71292222e-03 1.66197754e-02
      7.36441743e-03 -1.75893791e-02 -3.26699130e-02 -3.49658318e-02
      2.51792022e-03 2.00592130e-02 3.60152056e-03 1.04742777e-02
      -8.61317312e-05 1.68170314e-02 -1.36381397e-02 -3.61312367e-02
      -2.98232008e-02 1.28407283e-02 1.07457563e-02 1.84163405e-03
      2.34456006e-02 1.98764056e-02 2.76064649e-02 -2.33423593e-03
      -2.42132265e-02 -1.93456486e-02 -6.31300593e-03 -5.22248773e-03
      4.56453022e-03 2.49992348e-02 6.55154372e-03 2.40235254e-02
      2.48876377e-03 -4.91295336e-03 -1.13181071e-02 -1.82191432e-02
      2.29156036e-02 7.52239255e-03 9.41354688e-03 6.81185629e-03
      1.73113924e-02 -2.30739862e-02 -4.86357473e-02 -3.24301310e-02
      2.30977964e-03 1.64769497e-02 1.69361029e-02 1.61727909e-02
      1.57103268e-03 1.77109465e-02 -1.59625877e-02 -3.76772769e-02
      -2.64691114e-02 -7.41747033e-04 -7.14845257e-03 7.81533029e-03
      1.24962525e-02 -2.05869824e-02 2.27676537e-02 -1.37723144e-02
      3.30463354e-03 -1.00020291e-02 -2.10415740e-02 6.05041487e-03
      7.79422792e-03 5.83646400e-03 -6.36727456e-03 -2.19435114e-02
      -6.49279775e-03 -9.02811298e-04 -2.10874202e-03 6.41983934e-03
      6.97526801e-03 1.27714463e-02 1.52220661e-02 -2.21171938e-02
      9.41807590e-03 -1.92194376e-02 -2.59704515e-02 -2.21720710e-02
      -9.04486701e-03 4.35358193e-03 1.12077724e-02 2.85301544e-03
      -7.05737330e-05 -1.61510166e-02 -1.29013276e-02 4.93792933e-04
      -5.07491734e-03 -6.94977993e-04 1.56471727e-03 9.22102295e-03
      4.12056223e-03 5.90688433e-04 1.97994020e-02 1.07546139e-03
      7.76510686e-03 9.57689714e-03 6.85408385e-03 2.50011636e-03
      8.49264907e-04 5.84512902e-03 5.42944157e-03 -7.83737097e-03
      3.18420213e-03 2.28622509e-03 3.19193280e-03 2.54610530e-03
      4.75423032e-04 2.16216817e-02 4.42853523e-03 1.57320257e-02
      2.27882862e-02 5.46251613e-05 1.59473792e-02 9.74511448e-03
      1.14937255e-03 3.04816640e-04 4.16012388e-03 8.37383978e-03
      1.04843071e-02 -7.77228596e-03 7.22058769e-03 4.98008262e-03
      3.43481335e-03 2.23839399e-03 3.53453844e-03 1.00619555e-03
      6.10951055e-03 8.24562181e-03 7.32158136e-04 8.89526866e-03
      1.17832632e-03 4.22979612e-03 2.12383410e-03 0. 0. 0.
      -4.11053443e-05 -3.25182569e-03 -4.47619568e-05 0. 0. 0.
      2.16191867e-03 3.75120179e-03 1.05416682e-02 1.85506642e-02
      6.74011477e-04 5.51903620e-03 3.00420658e-03 4.52959584e-03
      2.90220208e-03 0. 0. 0. -3.88621702e-05 -4.96777240e-03
      -1.51036156e-05 0. 0. 0. 0. 0. 0. 0. 0. 0. 0. 0. 0. 0. 0. 0. 0. 0.
      0. 0. 0. 0. 0. 0. 0. 0. 0. 0. 0. 0. 0. 0. 0. 0. 0. 0. 0. 0. 0. 0.
      0. 0. 0. 0. 0. 0. 0. 0. 0. 0. 0. 0. 0. 0. 0. 0. 0. 0. 0. 0. 0. 0.
      0. 0. 0. 0. 0. 0. 0. 0. 0. 0. 0. 0. 0. 0. 0. 3.01190012e-04
      4.95539454e-04 2.53247650e-04 -8.64138070e-04 4.10333043e-04
      5.66443021e-04 0. 0. 5.90532646e-03 6.02297671e-03 8.79893359e-03
      4.62587317e-03 -7.21517950e-03 1.36010926e-02 1.54789472e-02
      8.67852755e-03 6.65209163e-03 0. 9.47357476e-05 2.00475930e-04
      5.41395275e-04 -1.00402383e-03 6.43898675e-04 5.57726948e-04 0. 0.
      5.11013949e-03 2.33047176e-03 4.54906188e-03 8.30429792e-03
      -7.21517950e-03 1.45750558e-02 1.55838402e-02 4.78706276e-03
      6.89945836e-03 5.87438792e-03 3.78284091e-03 5.64362062e-03
      2.45956914e-03 -9.25336871e-03 9.88952536e-03 1.05664106e-02
      7.20971543e-03 5.14940219e-03 5.36735542e-03 5.36282361e-03
      5.94368391e-03 1.17758252e-02 1.97853316e-02 9.90846194e-03
      1.67829439e-03 9.32569802e-03 7.02155009e-03 4.14192816e-03
      1.60996860e-03 1.15936226e-03 2.80291191e-03 -1.06053036e-02
      7.82374851e-03 1.05683431e-02 3.08066653e-03 4.58939280e-03
      6.07141526e-03 2.55033677e-03 1.62247494e-02 1.45092085e-02
      4.72458638e-02 1.01315649e-02 4.85319551e-03 -2.92518944e-03
      8.08430556e-03 -1.08045945e-03 7.02895224e-04 3.95475654e-03
      2.64751446e-03 -1.38305975e-02 4.01767110e-03 1.06772804e-03
      6.33474998e-03 -6.97568944e-03 -8.88431631e-03 -1.36040170e-02
      2.22811429e-03 -3.94107029e-03 1.45898331e-02 -1.73960242e-03
      7.16973329e-03 -1.41830591e-03 -3.18670273e-02 8.89679138e-03
      2.39785970e-03 6.89212559e-03 1.15608973e-02 2.88594840e-03
      4.73698182e-03 4.35723830e-03 -2.15542503e-03 3.06374533e-03
      2.70384713e-03 -2.66422257e-02 -2.41717752e-02 -2.16165222e-02
      1.63026173e-02 -1.31930495e-02 5.04387775e-03 -2.61811400e-03
      8.30276683e-03 4.32589557e-03 -1.65563226e-02 -1.96861336e-03
      5.23267081e-03 2.04150677e-02 1.15233229e-03 8.50368384e-03
      5.58430969e-04 3.86033603e-03 1.87552590e-02 -2.12471448e-02
      -9.18001030e-03 4.53752000e-03 2.41243262e-02 2.33351975e-03
      6.45860285e-03 2.28070281e-03 1.19553544e-02 2.03787535e-02
      -2.56548803e-02 -2.27727983e-02 -2.51342282e-02 1.05439862e-02
      5.89012867e-04 4.43469081e-03 1.04937488e-02 2.65396107e-02
      2.60408372e-02 -3.61642465e-02 -4.61139232e-02 -3.01204547e-02
      -8.07614345e-03 7.37623777e-03 6.20518066e-03 2.32357774e-02
      2.89460439e-02 1.67607907e-02 -1.37394443e-02 -1.39178969e-02
      -2.63686315e-03 2.00449452e-02 5.97151136e-03 7.75178336e-03
      7.20452145e-03 1.53524578e-02 1.39582520e-02 -8.34098551e-03
      -2.37068497e-02 5.50083024e-03 9.07288305e-03 8.36145412e-03
      1.58626307e-02 8.91715381e-03 5.53274236e-04 1.50975715e-02
      -2.66712364e-02 -3.99951339e-02 -8.69608577e-03 6.78660627e-03
      9.75119974e-03 1.34040127e-02 1.70979984e-02 1.76012404e-02
      -8.17745738e-03 -2.48748790e-02 -1.63786095e-02 -9.91186965e-03
      -4.32230625e-03 7.75926188e-03 1.96122881e-02 1.81501489e-02
      -5.32932393e-03 1.93406660e-02 3.85632529e-03 -4.99163708e-03
      1.00393379e-02 -1.19713927e-02 8.98125581e-04 1.46096433e-02
      1.46060726e-02 -6.71380432e-03 -1.35018397e-02 2.69507989e-03
      -1.40852737e-03 9.41954367e-03 -1.31182354e-02 5.96544892e-03
      1.82741880e-02 9.09007993e-03 -1.80693977e-02 -2.46868958e-03
      -2.05782801e-03 3.86839220e-03 1.49414008e-02 -6.41633896e-03
      8.39835219e-03 1.22013418e-02 8.94622132e-03 -2.10976359e-02
      -3.94243598e-02 -2.45014112e-03 1.97064434e-03 2.56949905e-02
      -1.36009026e-02 7.15128053e-03 -4.77933651e-03 -1.00105144e-02
      -3.80871929e-02 -1.83064453e-02 4.22468402e-05 5.02938777e-03
      3.78181739e-03 3.80369456e-04 1.26903309e-02 1.67371165e-02
      5.49998926e-03 -1.55242393e-02 -7.85752572e-03 7.28064263e-03
      8.78714956e-03 4.42262040e-03 -5.55985281e-03 9.55608115e-03
      9.73354094e-03 1.00012626e-02 -1.03949206e-02 -3.57058942e-02
      -1.70011166e-03 5.62192034e-03 6.51128497e-03 4.76199528e-03
      6.11908035e-03 -5.96096367e-03 2.97517260e-03 -2.76617110e-02
      -2.03392264e-02 1.71440712e-03 6.91148033e-03 -6.20238949e-03
      -5.33701014e-03 -1.05271908e-03 -1.21655790e-02 -1.38132728e-03
      -2.15578713e-02 6.94281748e-03 1.56500917e-02 1.82284955e-02
      7.60638760e-03 1.16131138e-02 3.36501352e-03 -7.21896207e-03
      7.37163564e-03 -6.96168700e-03 2.96420921e-02 2.41748411e-02
      1.53345689e-02 1.58156548e-02 1.67036317e-02 -6.37132628e-03
      -2.64923032e-02 -2.05806643e-02 1.41152386e-02 -2.05862187e-02
      9.61226039e-03 2.09776051e-02 6.84527215e-04 -3.38497246e-03
      -1.74676292e-02 -3.55460010e-02 -2.58765947e-02 -3.39962393e-02
      4.83278930e-03 1.97131839e-02 1.61875561e-02 1.63361430e-02
      -8.25669616e-03 -2.93371435e-02 -4.18525860e-02 -3.46067213e-02
      -8.73685069e-03 3.39605547e-02 1.37331327e-02 1.93319712e-02
      1.90304089e-02 1.28442692e-02 -1.26743997e-02 -3.52554135e-02
      -3.22280116e-02 2.21090671e-02 3.05208173e-02 8.89385410e-04
      1.26556000e-02 1.50834676e-04 1.05571738e-02 -2.17312444e-02
      -3.18520665e-02 -1.77651737e-02 2.99355742e-02 9.99164302e-03
      3.85153922e-03 8.84661358e-03 1.64657161e-02 -6.20621070e-03
      -6.23738114e-03 -2.61422452e-02 -1.39863826e-02 9.65524465e-03
      1.67303905e-02 2.09198054e-03 8.37702490e-03 2.47197016e-03
      -1.31308543e-03 -1.08150411e-02 -1.12843728e-02 -1.14204939e-02
      1.52892796e-02 1.14162406e-02 8.92757811e-03 3.58270830e-03
      5.50214946e-03 5.12472773e-03 -2.66242027e-02 -4.07626405e-02
      -1.79980621e-02 2.61331052e-02 9.89795569e-03 2.20066663e-02
      1.08727952e-02 1.49826547e-02 4.33792956e-02 -2.26924308e-02
      -3.79344076e-02 -8.89710989e-03 2.37743463e-02 1.26585197e-02
      -1.77371711e-03 -1.99403986e-03 -4.14132187e-03 -1.54866334e-02
      -2.91745700e-02 -2.66059432e-02 -1.64902955e-02 2.20014807e-02
      1.78602468e-02 8.84405617e-03 4.74314298e-03 1.43179041e-03
      2.44455654e-02 -3.59933935e-02 -3.81148048e-02 -1.63434688e-02
      1.96455363e-02 -4.43968596e-03 8.36647861e-03 8.53015576e-03
      -4.32079146e-03 2.99699828e-02 -3.82470116e-02 -5.92662282e-02
      -2.67795864e-02 1.49302604e-03 2.20835814e-03 6.26368495e-03
      3.06459633e-03 2.32407544e-03 3.51247191e-03 -3.75253242e-03
      2.80945539e-03 7.20380759e-03 1.89264436e-04 9.21365619e-03
      9.88515560e-03 -1.25227554e-04 -1.36473440e-02 3.94136570e-02
      -5.78010008e-02 -6.52488545e-02 -3.87888961e-02 2.12249509e-03
      4.66641504e-03 6.41106255e-03 1.10331352e-03 -6.94447104e-03
      1.36109227e-02 -8.51462223e-03 -9.63618513e-03 1.21989602e-03
      5.40900556e-03 2.95833359e-03 1.51212579e-02 7.03452807e-03
      1.07779494e-02 1.53302373e-02 -1.66897173e-03 8.42242781e-03
      1.49526754e-02 3.64970020e-03 2.89200782e-03 9.02648829e-03
      7.37678073e-03 6.21387316e-03 -1.30860573e-02 2.34079291e-03
      2.84142257e-03 8.62105342e-04 1.64607086e-03 1.26759987e-02
      1.55738071e-02 1.35303065e-02 2.35088845e-03 2.10437272e-02
      -9.94203426e-03 -4.50608321e-03 7.21136481e-03 9.02144331e-03
      8.47119093e-03 9.84494668e-03 6.25525368e-03 1.76243018e-03
      -8.26305896e-03 4.52078588e-04 1.24223030e-03 1.18066045e-03
      4.26067738e-03 3.93711589e-03 1.24264238e-02 1.10404082e-02
      1.03019457e-02 -1.42440316e-03 2.18377891e-03 2.78296904e-03
      1.58896262e-03 2.22013146e-03 0. 0. 0. -5.16006039e-05
      -4.50707600e-03 -5.78003055e-05 0. 0. 0. 6.85017742e-03
      1.40063111e-02 7.57934991e-03 3.39791318e-03 3.78995086e-04
      6.65381318e-03 5.37854433e-03 1.70040468e-03 4.55223117e-03 0. 0.
      0. -8.43542948e-05 -4.09157807e-03 -1.02285798e-04 0. 0. 0. 0. 0.
      0. 0. 0. 0. 0. 0. 0. 0. 0. 0. 0. 0. 0. 0. 0. 0. 0. 0. 0. 0. 0. 0.
      0. 0. 0. 0. 0. 0. 0. 0. 0. 0. 0. 0. 0. 0. 0. 0. 0. 0. 0. 0. 0. 0.
      0. 0. 0. 0. 0. 0. 0. 0. 0. 0. 0. 0. 0. 0. 0. 0. 0. 0. 0. 0. 0. 0.
      0. 0. 0. 0. 0. 0. 1.20291028e-04 7.81439012e-04 8.84726524e-06
      2.32799910e-04 1.68851446e-04 2.16999888e-05 0. 2.60132970e-03
      3.74662085e-03 4.79310006e-03 1.45429391e-02 -3.96956969e-03
      8.44003540e-03 7.04080099e-03 3.01910192e-03 3.37570510e-03
      2.56488329e-05 1.17845411e-04 2.72167847e-04 3.99058394e-04
      2.41671340e-04 -2.01115981e-05 2.62367917e-04 3.37216712e-04
      2.08438752e-04 2.18704529e-03 6.16829284e-03 7.57825607e-03
      7.34078651e-03 -3.96956969e-03 2.13528494e-03 7.21564842e-03
      1.36290696e-02 1.46696987e-02 1.76416629e-03 2.51802756e-03
      4.19865781e-03 5.64007787e-03 -8.02158099e-03 4.29103570e-03
      5.36624994e-03 1.75941165e-03 2.63167219e-03 7.62360077e-03
      -6.86528115e-03 2.01693494e-02 1.04126604e-02 6.04176708e-02
      9.84799303e-03 4.18865500e-04 -4.12837556e-03 1.11485198e-02
      1.16662960e-03 4.08047205e-03 5.87474694e-03 2.60783150e-03
      -7.30202766e-03 1.51209184e-03 4.76154452e-03 8.73986352e-03
      1.05160223e-02 -5.29533252e-03 -1.02757914e-02 4.83076414e-03
      2.38095387e-03 1.90088749e-02 1.09937377e-02 -1.47970170e-02
      -6.11243583e-03 7.27833528e-03 1.32063739e-02 5.49537037e-03
      1.03789428e-02 1.21345399e-02 1.35608008e-02 5.54570649e-03
      7.49261957e-03 2.99947639e-03 1.47724971e-02 5.95163647e-03
      -1.00152474e-02 -5.86035149e-03 -7.57288479e-04 1.93794798e-02
      -7.51039432e-03 9.59378015e-03 7.58087030e-03 1.75828859e-02
      -6.93094730e-03 -5.12620434e-03 3.45679029e-04 1.91907259e-03
      -5.73632633e-03 4.41331882e-03 -4.64736531e-03 -2.72124656e-03
      2.21630745e-03 -3.94247398e-02 -2.93229222e-02 -1.96149703e-02
      -2.27123089e-02 1.65237058e-02 -3.58535051e-02 -9.37226322e-03
      -1.53667266e-02 -2.22365297e-02 1.21349180e-02 -1.03554446e-02
      -5.61241759e-03 -2.86661321e-03 4.39784005e-02 6.13228604e-03
      1.19404662e-02 1.84109043e-02 1.92675032e-02 1.92973558e-02
      -2.14725621e-02 -1.54164862e-02 -1.25375912e-02 2.44847871e-03
      1.59885772e-02 2.06113160e-02 3.09470538e-02 2.52583735e-02
      -1.70762464e-02 -2.18620207e-02 -6.28237519e-03 -1.21039990e-02
      2.64831614e-02 -1.22229531e-02 3.89984506e-03 3.94929480e-03
      -7.09265610e-03 -1.13040078e-02 -4.70630154e-02 -2.96258107e-02
      -2.18188968e-02 -1.02600818e-02 -1.07569555e-02 -6.16435846e-03
      4.26224060e-03 -6.44549076e-03 1.72924921e-02 -2.41011940e-02
      -2.23311484e-02 -1.68615263e-02 -8.94104224e-03 1.22396937e-02
      3.05953268e-02 2.18191259e-02 1.89484935e-02 1.51099265e-02
      -1.05889961e-02 -1.35560511e-02 -8.41114949e-03 -4.29079821e-03
      1.43308965e-02 4.00210656e-02 2.19700988e-02 1.57780889e-02
      -6.13743439e-03 -3.52531038e-02 -2.51690783e-02 -1.50832972e-02
      -2.07928438e-02 -7.46106671e-04 7.28949020e-03 -4.79732500e-03
      3.26468755e-04 8.63167923e-03 -5.92601812e-03 -5.62071614e-03
      -1.42036369e-02 -1.69602521e-02 -3.55530716e-03 1.84242856e-02
      -3.29704257e-03 8.03541392e-03 -2.32373155e-03 2.17563752e-03
      -1.46671839e-04 5.60333626e-03 -4.29838430e-03 -3.52564896e-03
      1.38761308e-02 1.21060284e-02 -1.05316741e-02 -9.19753779e-03
      8.71494506e-03 6.52223872e-03 2.35632285e-02 1.54801542e-02
      1.27532044e-02 -3.40894272e-04 8.29529483e-03 -1.31484307e-02
      -1.01027060e-02 6.57820934e-03 -2.07932724e-04 -1.38946148e-02
      -1.40158851e-02 -3.08102742e-02 3.47216590e-03 -8.23485758e-03
      -1.85253881e-02 -2.44939085e-02 1.00772502e-02 3.48440348e-03
      9.73184686e-03 -4.20100463e-04 -9.61617474e-03 -2.74280203e-03
      -4.16140025e-03 -2.11948268e-02 3.09838192e-03 9.43013525e-04
      3.06285685e-03 9.43460502e-03 1.04436036e-02 1.23784598e-02
      -7.60974828e-03 1.36470813e-02 1.21254874e-02 9.36454162e-03
      -6.83507090e-03 4.78427066e-03 6.11480419e-03 -4.26121801e-03
      -1.06166182e-02 -2.78952066e-02 -5.24654891e-03 3.02490708e-03
      -1.08195236e-03 -1.65397383e-03 1.25941809e-03 7.10457331e-03
      1.12380320e-02 4.96166665e-03 -5.47423074e-03 2.12400802e-03
      -3.86805786e-03 -1.01487068e-02 -2.28833724e-02 8.42558104e-04
      -4.29236051e-03 2.15476658e-03 -2.43139584e-02 -2.82226223e-02
      -1.12550426e-02 -1.72094107e-02 2.09265724e-02 1.58622731e-02
      2.04854328e-02 9.94671788e-03 1.53613333e-02 -1.26578845e-02
      -2.54402105e-02 -9.32044163e-03 6.06735516e-03 2.35630758e-02
      2.77771037e-02 1.77505240e-02 -2.82602431e-03 1.54973334e-03
      -9.44885705e-03 -1.09881340e-02 -6.41050097e-03 1.76867917e-02
      -5.05112158e-03 -1.04290871e-02 -2.47516530e-03 -1.76368449e-02
      4.90755821e-03 -2.82001030e-02 -2.76451577e-02 -1.09679578e-02
      -1.73436403e-02 8.48660711e-04 6.55047875e-03 2.09871866e-03
      -2.36551147e-02 -1.35603240e-02 -2.38446258e-02 -1.82160661e-02
      -2.36956589e-03 -3.41868936e-03 9.78276227e-03 1.66414073e-04
      3.21833650e-03 -9.99704236e-04 -9.78334621e-03 2.44969758e-03
      -4.14974638e-04 -1.82541116e-04 5.23118069e-03 1.28022796e-02
      5.66096371e-03 6.91729970e-03 1.76099280e-03 7.78779341e-03
      1.12576568e-02 5.42406645e-03 -5.34413988e-03 -8.77675775e-04
      -4.68553137e-03 -8.70832335e-03 1.47158760e-04 -1.16728181e-02
      -2.76773032e-02 -1.03161745e-02 -4.51644044e-03 -2.61051184e-03
      -1.89821469e-03 -1.04759715e-03 -7.77472137e-03 1.58655513e-02
      3.88313201e-03 6.15125475e-03 -9.35641024e-03 5.01399999e-03
      -5.68750873e-03 -5.18456427e-03 1.49603304e-03 -3.06858518e-03
      -2.78657465e-03 -1.76179446e-02 -1.15851592e-02 -1.40291387e-02
      -1.66942477e-02 -2.18711868e-02 1.07117957e-02 2.74195224e-02
      7.29811750e-03 8.03806540e-03 -1.42443879e-02 2.84644663e-02
      -2.19088737e-02 -1.90771800e-02 -7.18868803e-04 2.69009434e-02
      2.21829046e-03 1.49741548e-03 1.04928091e-02 -4.03239299e-03
      -6.27447246e-03 -2.60836948e-02 -2.14926004e-02 -3.04761175e-02
      5.48920687e-03 1.60554200e-02 -4.29255888e-03 -2.07270216e-02
      -2.53530424e-02 1.25815747e-02 -1.71513632e-02 -1.26234153e-02
      -9.46030486e-03 1.86464842e-02 2.57716328e-02 1.19099980e-02
      -6.58633886e-04 -3.26325335e-02 2.83764359e-02 -3.84386107e-02
      -3.70318368e-02 -2.04837939e-04 1.72275659e-02 1.26925381e-02
      9.78434458e-03 5.47436858e-03 -4.32090019e-05 1.55132813e-02
      -5.65393537e-04 -3.28418240e-03 1.08963181e-03 1.22875357e-02
      2.30644806e-03 -2.48963628e-02 -3.89684364e-02 -4.35192771e-02
      2.53664032e-02 -2.44390424e-02 -1.09486096e-02 -8.04196857e-03
      1.34481932e-03 -7.70609500e-03 3.53042735e-03 6.90312311e-03
      -4.30172635e-03 6.90947147e-03 -2.79543689e-03 2.01628412e-04
      -9.51017812e-03 -7.51276687e-03 1.04652317e-02 1.10552581e-02
      1.16484519e-02 8.49795062e-03 2.42786966e-02 -5.56803914e-03
      -7.42785726e-03 -4.94255172e-03 6.74991589e-03 5.29444125e-03
      5.24952263e-03 1.05410004e-02 5.76211233e-03 2.57033971e-04
      5.32187475e-03 1.13561179e-03 3.96210089e-06 4.17403597e-03
      -2.44712993e-03 1.03537310e-02 8.97653773e-03 2.26879143e-03
      2.16535162e-02 -1.26074748e-02 -8.36163666e-03 -1.43708242e-02
      -1.30169289e-02 -2.08624639e-03 6.72530383e-03 1.10080633e-02
      9.73292626e-03 -3.22366762e-03 -1.11616775e-03 -2.52529606e-03
      -3.83038190e-04 -5.99799305e-03 2.49374122e-03 5.65776089e-03
      8.83367006e-03 5.45276329e-03 2.08113296e-03 1.21819954e-02
      3.62491538e-03 3.89670982e-04 3.27840634e-03 0. 0. 0.
      -7.54726279e-05 -3.71019566e-03 -9.27678338e-05 0. 0. 0.
      1.01431704e-03 4.23401129e-03 1.52744884e-02 1.09941838e-02
      -8.21086229e-04 2.19535548e-03 -1.11207564e-03 2.66014272e-03
      -1.77691015e-03 0. 0. 0. -5.59521941e-05 -4.32010973e-03
      -1.03505023e-04 0. 0. 0. 0. 0. 0. 0. 0. 0. 0. 0. 0. 0. 0. 0. 0. 0.
      0. 0. 0. 0. 0. 0. 0. 0. 0. 0. 0. 0. 0. 0. 0. 0. 0. 0. 0. 0. 0. 0.
      0. 0. 0. 0. 0. 0. 0. 0. 0. 0. 0. 0. 0. 0. 0. 0. 0. 0. 0. 0. 0. 0.
      0. 0. 0. 0. 0. 0. 0. 0. 0. 0. 0. 0. 0. 0. 5.75954109e-05
      3.44933476e-04 3.02820961e-04 3.18747509e-04 -1.53379072e-03
      -1.71103093e-05 1.31458684e-04 1.72769884e-04 1.72188520e-04
      6.44828938e-03 6.36879541e-03 6.30883174e-03 5.88579057e-03
      -4.30473173e-03 2.85199285e-03 3.90261994e-03 9.11553390e-03
      1.51779046e-02 2.61797340e-05 2.25947631e-04 2.86675320e-04
      4.52962006e-04 1.36517419e-03 9.80591052e-04 1.60718148e-04
      6.45275520e-07 1.14792347e-05 7.12037133e-03 6.73550228e-03
      8.38936120e-03 9.58174560e-03 -4.30473173e-03 1.30308466e-02
      2.66485685e-03 1.24983327e-03 5.16606309e-03 3.69302672e-03
      3.91236600e-03 4.24081739e-03 2.04322045e-03 -1.97776989e-03
      4.90093092e-03 3.46702384e-03 6.75942097e-03 1.15401540e-02
      8.93530727e-04 -3.26208421e-03 -6.11756090e-03 -1.80585682e-03
      3.68627086e-02 1.16863325e-02 4.05566441e-03 3.50878830e-03
      4.25440026e-03 3.68592096e-03 5.26674557e-03 7.16599589e-03
      4.49102372e-03 -1.83308986e-03 7.56971864e-03 2.44148914e-03
      1.12834095e-03 3.67689505e-03 -3.19315912e-03 -7.29347207e-03
      5.81684755e-04 -1.63728581e-03 3.85068841e-02 -2.29526631e-05
      8.14963132e-03 4.12942655e-03 -2.17406754e-03 -9.85091180e-03
      -2.26259278e-03 2.21660268e-03 2.90229218e-03 9.73695889e-03
      8.64474196e-03 -6.13529061e-04 1.48210477e-03 1.58927904e-03
      -2.51988526e-02 -1.38739496e-02 -1.63974019e-03 -1.79451536e-02
      2.06656251e-02 -1.81465261e-02 -1.16580278e-02 -7.16200052e-03
      -2.54788287e-02 -7.77442055e-03 1.93951407e-03 5.57674002e-03
      -3.46854678e-03 -8.81333195e-04 7.92876538e-03 3.48849269e-03
      1.93636923e-03 -6.08735951e-04 -1.57435909e-02 4.93172696e-03
      7.10035255e-03 -3.19967233e-02 1.08070998e-02 -9.14638769e-03
      -3.56202596e-03 -5.81448292e-03 -1.48404724e-04 -5.21207508e-03
      8.14326922e-04 -2.43266043e-03 -1.39992740e-02 2.23927163e-02
      -1.66478772e-02 -4.72980505e-03 5.49349980e-03 -4.36262606e-04
      -4.08705277e-03 -1.44588696e-02 -1.60758514e-02 -1.47983311e-02
      -2.09929738e-02 -1.88876651e-02 -1.67989824e-02 3.56704951e-03
      2.19735131e-03 3.79011012e-03 2.00634617e-02 1.16213551e-02
      -2.37628445e-02 2.19171699e-02 -1.28477076e-02 -6.45354448e-04
      7.72264041e-03 2.15605497e-02 5.11763338e-03 7.29699107e-03
      2.60453159e-03 -1.29196737e-02 -2.16136072e-02 -2.11031791e-02
      -1.56194698e-02 9.63318162e-03 1.42077934e-02 1.06928754e-03
      -1.20697347e-02 -6.88699121e-03 -1.99178536e-03 -2.48716716e-02
      -1.20491358e-02 -2.73077376e-03 -5.01078973e-03 8.99703894e-03
      1.67010743e-02 1.24251060e-02 1.07504437e-02 1.28240441e-03
      -1.70857571e-02 -1.16204722e-02 1.15001220e-02 1.88872611e-04
      9.05154925e-03 2.42976826e-02 1.14190560e-02 6.08032476e-03
      -1.13073355e-02 -2.34339386e-02 -2.11075488e-02 1.76919473e-03
      4.40146495e-03 2.45213788e-02 2.84190793e-02 1.63170882e-02
      1.03769926e-02 -1.95230450e-02 -2.84023620e-02 -3.28156799e-02
      7.17237126e-03 3.45191779e-03 2.09141187e-02 1.14284940e-02
      1.23762293e-02 2.54197582e-03 -3.02246073e-03 -2.58125551e-02
      -1.08413091e-02 1.22527918e-02 5.18614834e-04 -1.07519550e-03
      1.29933713e-03 8.11731350e-03 1.33318279e-03 3.38792498e-03
      -1.00781638e-02 3.38175800e-03 7.73184048e-03 3.28575261e-04
      -7.31229037e-03 1.41608110e-02 -3.31109832e-03 -7.82391056e-03
      -2.73831598e-02 -3.21792997e-02 -2.72273012e-02 -1.45261886e-03
      -3.63333646e-04 6.00581104e-03 2.80563696e-03 -1.28897615e-02
      -1.95563361e-02 -2.11272202e-02 -1.16969664e-02 -6.64596306e-03
      1.03291729e-02 1.58875398e-02 7.27680326e-03 -1.91159302e-03
      3.96892754e-03 -4.43956442e-03 -7.97560625e-03 -6.37396798e-03
      -1.85377931e-03 -8.78712395e-04 -8.14660732e-03 -7.24641467e-03
      -1.26251662e-02 -1.16971321e-02 -1.07172772e-03 -1.96146294e-02
      -1.18712708e-02 -1.05594266e-02 1.12308830e-03 -8.99553485e-03
      -1.31739406e-02 1.06447609e-02 -3.76781472e-03 -1.70615930e-02
      -1.72056369e-02 -1.11753261e-02 -1.99359357e-02 1.54599929e-02
      1.41439484e-02 1.49238957e-02 1.36742825e-02 4.10856958e-03
      6.05254248e-03 -6.39192341e-03 -1.83427799e-02 -2.03393884e-02
      1.55953225e-02 -5.20977017e-04 4.00582328e-03 9.35799835e-05
      -3.48565052e-03 2.76780943e-03 -1.96715798e-02 -4.87627275e-03
      -1.44969402e-02 -7.39383791e-03 -1.05752493e-03 -2.35397043e-03
      2.38815858e-03 9.01611988e-03 2.84138834e-03 -2.08646338e-02
      -1.73643548e-02 -3.25398482e-02 -1.76689513e-02 -5.06269513e-03
      3.43208667e-03 2.17705667e-02 1.15394304e-02 2.25153081e-02
      2.95285904e-03 -7.95998203e-04 -8.38006195e-03 6.77679805e-03
      7.60830799e-03 2.06305943e-02 5.73814055e-03 7.00866990e-03
      -9.01634303e-06 -9.80459061e-03 -7.36820977e-03 -2.48735100e-02
      -1.03117749e-02 2.75215833e-03 1.27055785e-02 -1.02518348e-03
      -7.28529133e-03 -2.87659379e-04 -1.65200625e-02 -4.58971485e-02
      -2.20637266e-02 -5.44938864e-03 -4.61086212e-03 1.59835268e-03
      7.00887665e-03 5.44093898e-04 1.82728302e-02 -6.04815141e-04
      -7.40398280e-03 5.96718630e-03 1.66737009e-02 1.53051903e-02
      5.77367470e-03 -1.13417709e-03 -4.30783210e-03 -7.58645171e-03
      -1.19562801e-02 -3.69772427e-02 -2.05790531e-02 1.22067600e-03
      -3.60569707e-03 -6.11552363e-03 2.85228435e-03 1.84241794e-02
      1.88081320e-02 -4.29085968e-03 -1.18320193e-02 8.05216935e-03
      1.96690969e-02 2.30905209e-02 -8.30936991e-03 7.67536648e-03
      5.65181661e-04 1.14141032e-02 -3.80637194e-03 -1.90535672e-02
      -2.55591236e-03 3.16732889e-03 -1.61538296e-03 6.49821106e-03
      4.79091331e-03 -1.73153225e-02 -1.68494582e-02 -1.94750410e-02
      3.11373058e-03 -6.72311243e-03 -9.41923540e-03 -1.03288963e-02
      -2.00397358e-03 4.48890310e-03 -6.83083758e-03 -5.29785349e-04
      -1.02760056e-02 -2.80567668e-02 -5.24486275e-03 1.22779924e-02
      1.82067361e-02 3.28278076e-03 8.38569459e-03 -1.20011484e-02
      -1.83715206e-02 -1.82715822e-02 9.08698514e-03 -8.27966910e-03
      3.17007443e-03 5.33144397e-04 3.14384815e-03 -5.39283035e-03
      -3.83641608e-02 -3.30871232e-02 -3.67031507e-02 2.47538630e-02
      -1.71550941e-02 -1.43680982e-02 -2.05727778e-02 -1.43466042e-02
      -3.22078331e-03 2.27498263e-03 1.27551043e-02 8.69663898e-03
      1.47658736e-02 3.02597741e-03 5.44197718e-03 -2.27339938e-03
      -6.85489876e-03 -6.09665131e-03 -1.84332225e-02 -2.02895049e-02
      -2.79016476e-02 2.28849202e-02 -9.47065558e-03 -1.71674285e-02
      -1.54879782e-02 -1.80634949e-02 -4.18586610e-03 -3.48694768e-04
      1.62011757e-02 4.04322054e-03 -5.97936008e-03 8.23695958e-03
      3.89251183e-03 -2.14577056e-04 -1.01157390e-02 -2.00560992e-03
      8.78310949e-03 1.37433903e-02 1.18992396e-03 1.75362974e-02
      -4.61777532e-03 4.94287629e-03 -1.50837190e-03 -7.16344360e-03
      3.22138425e-03 5.68372058e-03 1.10221654e-02 8.56373832e-03
      -1.60360336e-03 -7.01426412e-04 -7.98718014e-04 2.83658947e-03
      -2.66136631e-04 -8.31058249e-03 -2.63481564e-03 1.56859532e-02
      -2.38987012e-03 1.85818709e-02 2.04016245e-03 3.86409904e-03
      3.21069406e-03 -1.17381746e-02 6.41818950e-03 1.78627158e-03
      1.00696022e-02 2.19510496e-03 -4.84037126e-04 3.76530661e-04
      1.79888867e-03 2.75215902e-03 6.61667949e-03 8.67275614e-03
      4.16019047e-03 1.30147459e-02 9.43691842e-03 -1.06308253e-04
      -1.34574261e-03 -1.37819920e-03 7.91629963e-03 3.60478717e-03 0.
      0. 0. -4.77006215e-05 -3.59920971e-03 -6.95375275e-05 0. 0. 0.
      1.04633374e-02 3.51908151e-03 9.57431272e-03 2.42020469e-03
      2.22775340e-03 -9.90193570e-04 2.82506738e-03 2.61052325e-03
      1.12113692e-02 0. 0. 0. -4.79719274e-05 -5.12412004e-03
      -6.60498117e-05 0. 0. 0. 0. 0. 0. 0. 0. 0. 0. 0. 0. 0. 0. 0. 0. 0.
      0. 0. 0. 0. 0. 0. 0. 0. 0. 0. 0. 0. 0. 0. 0. 0. 0. 0. 0. 0. 0. 0.
      0. 0. 0. 0. 0. 0. 0. 0. 0. 0. 0. 0. 0. 0. 0. 0. 0. 0. 0. 0. 0. 0.
      0. 0. 0. 0. 0. 0. 0. 0. 0. 0. 0. 0. 0. 0. 0. 0. 5.16114706e-05
      8.46604380e-05 2.78492854e-03 1.24918821e-03 5.01587288e-04 0. 0.
      5.77774877e-03 6.42303284e-03 4.97517176e-03 1.41470833e-03
      -1.14506145e-03 1.78429689e-02 8.91121011e-03 9.40167462e-04
      2.67981854e-03 0. 0. 0. -5.66269082e-05 -9.45938518e-04
      2.27281329e-04 4.23882884e-04 5.43094538e-05 8.88740942e-07
      1.00054014e-02 7.15734810e-03 3.07006063e-03 -2.21801875e-03
      -1.14506145e-03 3.90802557e-03 7.72255380e-03 2.64267041e-03
      4.69599897e-03 3.54902470e-03 6.77914079e-03 5.24685904e-03
      -5.61644592e-05 -2.61093769e-03 8.85180291e-03 5.36276121e-03
      8.17283522e-04 1.88232283e-03 -3.45490727e-04 9.33925528e-03
      5.75350691e-03 -1.12641640e-02 2.55130921e-02 4.65563382e-04
      7.85704888e-03 3.59944161e-03 1.62591797e-03 7.20910216e-03
      7.55785173e-03 3.15934722e-03 -3.58690694e-03 -4.21878835e-03
      2.00743321e-03 3.52587551e-03 1.20945694e-03 6.16163155e-03
      1.79709159e-02 1.30177736e-02 1.25074452e-02 -3.46309803e-02
      3.43314745e-02 -7.06889061e-03 1.45890107e-02 1.67753231e-02
      1.36178322e-02 -7.36891059e-03 7.90880248e-03 7.75778573e-03
      -7.12926360e-03 -2.87684258e-02 6.76596956e-03 4.35941666e-03
      9.46044165e-04 -2.50692456e-03 -1.14415511e-02 1.90354455e-02
      4.45427559e-03 -3.22084315e-02 -1.98602001e-03 -8.82767793e-03
      7.09602749e-03 -1.46151250e-02 1.04629956e-02 1.25212446e-02
      1.07896449e-02 1.07068401e-02 -1.12597542e-02 -2.13554390e-02
      5.07542677e-03 7.88861699e-03 1.31216180e-02 4.52772528e-03
      9.07834619e-03 1.58423204e-02 1.72530580e-02 -2.28633359e-02
      7.81092839e-03 1.27163902e-03 -4.57033655e-03 -7.73484865e-03
      4.10493510e-03 1.05646038e-02 2.67584138e-02 1.59972254e-02
      -5.06955339e-03 1.27116228e-02 -4.50088922e-03 -1.31760468e-03
      -6.43887371e-03 2.37738267e-02 1.04092155e-03 -9.94933536e-04
      -3.43143498e-03 -2.50174366e-02 -2.97280923e-02 -2.37747654e-02
      -1.96801852e-02 -6.48155436e-03 2.25810334e-03 2.24430412e-02
      2.16923468e-02 1.59087013e-02 1.39774277e-03 2.17904579e-02
      -6.27613766e-03 -6.54541375e-03 -7.91588798e-03 1.73647422e-02
      5.47069125e-03 1.36083197e-02 1.11786593e-02 -2.25447789e-02
      -2.87768375e-02 -2.88887639e-02 -2.67930981e-02 -2.16382723e-02
      -6.94673648e-03 2.38417219e-02 1.11533664e-02 2.68735457e-03
      -1.19883446e-02 -2.82755289e-02 -1.49133960e-02 2.86218524e-03
      5.02648344e-03 1.67694651e-02 2.97538843e-02 1.41577851e-02
      9.85120516e-03 -1.45796444e-02 -3.47111300e-02 -2.51322296e-02
      9.69114434e-03 8.20732117e-03 2.68151890e-02 1.73131879e-02
      1.33873876e-02 9.11606383e-03 -1.70328710e-02 -1.39267053e-02
      -2.27356926e-02 -1.46591878e-02 -8.39346647e-03 9.90987755e-03
      3.29807512e-02 4.93835052e-03 8.86647496e-03 -5.24038868e-03
      -2.28720233e-02 -2.92354077e-02 -1.37339653e-02 -4.23041685e-03
      3.93220708e-02 1.26943272e-02 7.30629312e-04 5.06111560e-03
      -2.39749346e-02 -2.90840678e-02 -2.36611143e-02 -9.70290694e-03
      3.20457295e-03 1.75280459e-02 2.04159645e-03 -1.30201392e-02
      -7.78360106e-03 -1.75114758e-02 -5.95291937e-03 -7.26677570e-03
      2.16593710e-03 1.52334552e-02 9.80941020e-03 1.15286177e-02
      -1.48718202e-04 4.19857120e-03 -3.37180472e-03 -1.41936066e-02
      -3.07780150e-02 -1.45095745e-02 -5.45371603e-03 1.18829776e-02
      -1.65291354e-02 1.32773770e-03 3.70176439e-03 4.74384520e-04
      9.09631420e-03 -7.64001999e-03 1.41115580e-02 3.44022270e-03
      -7.83233996e-03 2.51619308e-03 -2.83485986e-02 -3.55017297e-02
      -2.13681720e-02 -2.19354518e-02 -2.74785105e-02 1.04711978e-02
      1.33784153e-02 1.17307529e-02 1.59458537e-02 4.45754919e-03
      -5.12870634e-03 3.22453375e-03 -1.99601706e-02 -2.26915292e-02
      9.78669990e-03 5.90940332e-03 1.29621560e-02 -1.18531967e-02
      -5.41985966e-04 -1.62161626e-02 -4.61444492e-03 -2.31449190e-03
      -9.11272224e-03 1.82441100e-02 4.84930072e-03 -7.90174585e-03
      3.60156549e-03 8.72973539e-03 -8.54378566e-03 1.45500116e-02
      6.15744665e-03 3.98435583e-03 1.12952590e-02 6.80893380e-03
      2.59056631e-02 1.44211659e-02 1.39848813e-02 2.81521911e-03
      4.15692804e-03 -2.08835043e-02 -8.80451035e-03 5.19244093e-03
      6.99605281e-03 1.38801271e-02 -3.94062046e-03 1.08050620e-02
      -1.26098972e-02 -9.92185809e-03 -3.80218811e-02 -2.16789637e-02
      1.61581393e-03 3.10898246e-03 -5.76202804e-03 1.70577113e-02
      1.12815490e-02 -1.78829841e-02 5.60284406e-03 -2.07685605e-02
      -3.01630772e-03 9.34334379e-03 1.07043190e-02 2.98655406e-02
      7.34491134e-03 8.83642863e-03 -1.09900562e-02 -1.14339190e-02
      -3.19741704e-02 -1.09619228e-02 3.24603505e-02 1.86117608e-02
      5.30932005e-03 -8.52473918e-03 5.19414153e-03 -9.08917747e-03
      -4.18645423e-03 -3.79677191e-02 -1.76876467e-02 5.61035005e-03
      -8.63298867e-03 -1.16555579e-02 -8.52390379e-03 8.35932698e-03
      1.41447606e-02 5.65631129e-03 8.92107084e-04 -1.41015863e-02
      -5.43940347e-03 -8.01380491e-04 -1.02984728e-02 1.37462737e-02
      2.46671075e-03 -1.57503784e-03 2.15593129e-04 -1.55051528e-02
      3.08033125e-03 3.36567201e-02 1.57916937e-02 1.53755595e-03
      6.94244634e-03 -1.38970558e-02 -1.13368127e-03 3.70359537e-03
      2.03269403e-02 3.40158655e-03 1.31394789e-02 1.48776947e-02
      2.84809154e-03 -8.66243709e-03 -1.41934184e-02 -1.43924204e-03
      -1.16653368e-02 -1.05763078e-02 -1.97513290e-02 -4.05918481e-03
      1.35297151e-02 -9.51705780e-03 -2.71753897e-03 -1.49757266e-02
      -1.49363382e-02 -1.78914052e-02 1.92199759e-02 -4.96538030e-03
      8.61630123e-03 2.92028859e-03 -2.44355761e-03 -3.71302245e-03
      -2.21109223e-02 -3.09231994e-03 9.59090721e-06 1.16187762e-02
      4.16523404e-03 5.43533033e-03 1.73708480e-02 -8.83932412e-03
      -4.88087535e-03 -1.19758463e-02 -9.74526070e-03 -2.09429545e-05
      4.78200838e-02 9.71551519e-03 1.32370815e-02 5.51337609e-03
      -1.73988771e-02 -1.16997901e-02 -1.16191134e-02 -1.13186408e-02
      -1.53626977e-02 1.99032892e-02 -2.14225752e-03 -1.68604217e-03
      -1.22940503e-02 -2.68254336e-02 -6.57685380e-03 -4.50429600e-03
      4.03176527e-03 -2.35727383e-03 -1.14980470e-02 9.35877953e-03
      9.03569534e-03 -5.21766208e-03 -1.97201148e-02 -2.09397599e-02
      -1.81482565e-02 -1.16342567e-02 3.65900784e-03 2.70086750e-02
      6.86451141e-03 2.00536102e-03 -1.52726881e-02 -3.20616700e-02
      3.26342531e-03 2.44385633e-03 -7.67416134e-03 1.29336491e-02
      1.14976019e-02 1.18696894e-02 8.41941778e-03 -8.93031247e-04
      -6.32089050e-03 -1.25253433e-02 -3.68693238e-03 4.29237774e-03
      -9.50197689e-03 1.64027903e-02 1.18937334e-02 7.41241639e-03
      -6.34662108e-03 -1.49351088e-02 3.76113527e-03 3.63205071e-03
      4.78940923e-03 7.34086090e-04 -4.78355028e-03 5.25217038e-04
      5.74562093e-03 3.36852786e-03 6.08347217e-03 5.27362619e-03
      2.11770553e-03 -7.23680155e-03 5.37504815e-03 3.84901576e-02
      1.62847824e-02 1.16293263e-02 7.66770274e-04 5.74380392e-03
      3.37983388e-03 1.96124986e-03 1.02309627e-03 -8.79151223e-04
      -1.55834260e-03 5.08334162e-03 8.87458120e-03 4.69328649e-03
      1.01418486e-02 6.60453318e-03 7.76248565e-03 5.94150601e-03
      5.76898572e-04 -2.80656246e-03 1.62465591e-03 7.81084644e-03
      1.01810147e-03 9.55642387e-03 0. 0. 0. -5.97204489e-05
      -4.63636313e-03 -6.34697935e-05 0. 0. 0. 1.04852952e-02
      4.84738639e-03 1.05232140e-03 -2.78491178e-03 1.41551485e-03
      8.04353785e-03 1.04534579e-02 5.93552459e-03 1.87814645e-02 0. 0.
      0. -7.24371639e-05 -4.82838834e-03 -8.40692883e-05 0. 0. 0. 0. 0.
      0. 0. 0. 0. 0. 0. 0. 0. 0. 0. 0. 0. 0. 0. 0. 0. 0. 0. 0. 0. 0. 0.
      0. 0. 0. 0. 0. 0. 0. 0. 0. 0. 0. 0. 0. 0. 0. 0. 0. 0. 0. 0. 0. 0.
      0. 0. 0. 0. 0. 0. 0. 0. 0. 0. 0. 0. 0. 0. 0. 0. 0. 0. 0. 0. 0. 0.
      0. 0. 0. 0. 8.41824385e-06 1.42009303e-05 0. -1.31054694e-05
      5.10769954e-04 3.95747309e-04 8.11591919e-04 3.66727647e-04
      2.34877934e-05 1.92832984e-02 1.17665539e-02 4.51193145e-03
      -7.05254904e-04 3.13984510e-03 7.22238049e-03 1.34342201e-02
      9.83450096e-03 1.23355929e-02 1.50647116e-04 1.45872982e-04
      8.00480211e-06 -5.21518014e-05 -5.61527302e-03 1.05564010e-04
      1.68076935e-04 1.93852859e-04 9.96289818e-05 7.58038880e-03
      4.67371801e-03 1.19074888e-03 -2.02669296e-03 -1.27458731e-02
      1.76550052e-03 3.63874226e-03 6.54134573e-03 8.12169351e-03
      1.42430784e-02 1.04337223e-02 4.36178735e-03 -4.04522056e-03
      -1.23607898e-02 1.35944632e-03 4.53640101e-03 4.55955230e-03
      1.16008827e-02 1.87093355e-02 1.36157395e-02 1.69489663e-02
      -1.06457332e-02 4.63650395e-05 -1.74956620e-02 6.74098497e-03
      1.80144086e-02 1.85802840e-02 4.86645661e-03 3.65543459e-03
      1.42553763e-03 -2.81677255e-03 -1.72343384e-02 -1.27667759e-03
      7.78733462e-04 2.52629234e-03 2.48617772e-03 1.04980562e-02
      -5.03529678e-04 2.93940626e-04 1.39804222e-02 4.47473675e-02
      -8.78822617e-03 2.67054536e-03 1.03468327e-02 1.12778554e-02
      1.46817025e-02 4.69896942e-03 6.48811646e-03 -4.66495426e-03
      -8.49883072e-03 -1.11706147e-03 2.65012565e-03 1.38337109e-02
      1.17640188e-02 6.45536277e-03 -3.19550885e-03 -5.62486565e-03
      -2.17017196e-02 -1.66021404e-03 4.82619181e-03 -9.02196765e-03
      1.22352019e-02 1.23591200e-02 6.63675833e-03 -3.60560254e-03
      1.11582701e-03 3.42288055e-03 -1.14106769e-02 -5.71565656e-03
      -3.47200083e-04 5.65629220e-03 1.10038221e-02 -1.18439309e-02
      -2.75827702e-02 -2.69162133e-02 -1.55062452e-02 -2.99454480e-03
      -7.25490926e-03 -1.70995444e-02 5.39449044e-03 -3.26647144e-03
      2.41641868e-02 1.24360947e-02 8.94928165e-03 -2.25743948e-04
      3.20531391e-02 4.86040954e-03 -7.08767073e-03 9.18928813e-03
      2.03627273e-02 2.68266201e-02 3.08784116e-02 2.80280709e-02
      -3.63187864e-03 -1.81392464e-03 -2.28707455e-02 -3.27315368e-02
      -3.17747816e-02 3.48281418e-03 2.67314678e-03 -1.42343985e-02
      -1.02169504e-02 -1.01921456e-02 1.13167800e-02 -7.93142430e-03
      -1.82408895e-02 3.42602143e-03 -2.96974205e-03 1.29370755e-02
      1.09438291e-02 4.38023219e-03 2.33521149e-03 1.86836571e-02
      -1.34939104e-02 -3.54403742e-02 -3.54344025e-02 -1.21143158e-03
      3.47623192e-02 2.39604358e-02 2.37178542e-02 1.43203046e-02
      7.96689838e-03 -1.43947760e-02 -3.62111293e-02 -2.91515235e-02
      1.83557924e-02 3.14376131e-02 8.92055780e-03 1.42289950e-02
      2.25806963e-02 1.05435112e-02 -5.73620712e-03 -3.28558870e-02
      -1.91139840e-02 2.57978328e-02 2.03387178e-02 1.60906073e-02
      1.69258807e-02 1.61268748e-02 2.93345843e-02 -6.45651435e-03
      -3.99352685e-02 -4.06381525e-02 1.57303065e-02 1.12726325e-02
      1.84065709e-03 5.40876668e-03 2.64827535e-02 2.44479794e-02
      -3.50980065e-03 -5.84071800e-02 -4.35950235e-02 5.89848822e-03
      2.15473901e-02 -1.80743530e-03 7.66888633e-03 1.86218433e-02
      2.85911444e-03 -9.91713628e-03 -2.01871283e-02 7.51800108e-05
      3.13025503e-03 -4.99684829e-03 1.82772111e-02 2.17263289e-02
      1.57714542e-02 1.98842725e-03 5.55500854e-03 2.26979554e-02
      1.29670342e-02 -5.90665557e-04 -2.74627586e-03 -8.31406750e-03
      1.30831962e-02 1.35118579e-02 -1.42666847e-02 -9.98712890e-03
      -3.43017429e-02 -2.48047169e-02 -3.30275111e-02 -1.73418745e-02
      6.88797561e-03 2.44886111e-02 3.68554238e-03 -8.43604933e-03
      -2.23296620e-02 -4.98202350e-03 -1.81118154e-03 -1.50844827e-02
      -1.27605675e-02 1.47944726e-02 1.17473332e-02 1.04154451e-02
      -1.43919198e-03 6.44599926e-03 1.85230356e-02 8.64922162e-03
      -2.32321559e-03 3.72276152e-03 1.12202913e-02 -4.17468371e-03
      1.56024275e-02 2.75716521e-02 2.19375417e-02 1.36210117e-02
      1.67028755e-02 2.37821396e-02 -3.35911550e-02 -2.15563877e-03
      1.66045991e-03 -1.09836077e-02 -1.52669763e-02 -2.93277614e-02
      -6.96616014e-03 4.25385166e-04 -2.30844300e-02 -2.00080201e-02
      -8.23563058e-03 -8.95937905e-03 -4.14141826e-03 1.32796424e-03
      -5.11586433e-03 9.48803592e-03 1.64954197e-02 -1.45276857e-03
      6.27780973e-04 -1.22119568e-03 -1.07859029e-02 -6.46937406e-03
      -2.69795681e-04 1.23756165e-02 1.70147438e-02 1.92400608e-02
      1.37949102e-02 7.48389051e-04 -9.74419340e-03 -1.25772823e-02
      -6.75100321e-03 -1.10207004e-02 7.21132755e-03 3.55466008e-02
      2.13448685e-02 -2.67036725e-03 -7.34185427e-03 -7.37569761e-03
      -2.01689941e-03 -6.07650122e-03 -2.30906862e-05 1.48061349e-03
      1.77431908e-02 1.61724444e-02 -1.02556916e-02 -9.44857113e-03
      -1.14395255e-02 -7.80031644e-03 -3.40794516e-03 -3.80182941e-03
      3.35008907e-03 1.41226519e-02 7.16529554e-03 -6.57461211e-03
      5.50561585e-03 -1.67677812e-02 -1.49710691e-02 -3.18389805e-03
      -1.49181567e-03 1.02186371e-02 2.98569538e-02 1.54288402e-02
      2.19329563e-03 8.55572987e-03 -2.69838497e-02 -1.59834940e-02
      2.67128972e-03 1.46607328e-02 1.66638829e-02 2.60838047e-02
      1.32891471e-02 7.24900840e-03 -6.83172001e-03 -2.97711957e-02
      -2.54595000e-02 -6.17719907e-03 1.70221236e-02 1.03060883e-02
      3.35992500e-03 -3.41772393e-04 -3.62171326e-03 3.82877607e-03
      -2.82829404e-02 -2.02220920e-02 2.18052650e-03 3.04240435e-02
      1.90656614e-02 2.04609167e-02 1.03816334e-02 -3.31700966e-03
      -4.54807701e-03 -2.23628264e-02 -1.30373184e-02 -1.48082583e-03
      8.74348730e-03 1.93278864e-02 1.97279565e-02 1.82521269e-02
      -9.24009271e-03 -9.88505874e-03 -1.45840459e-02 -1.78594831e-02
      2.73504644e-03 4.71986644e-02 2.03083549e-02 1.77643783e-02
      1.31470272e-02 -9.02580377e-03 -1.85561348e-02 -2.86717545e-02
      -3.01822424e-02 8.08275864e-03 2.73441095e-02 1.93111841e-02
      2.27016136e-02 1.43784257e-02 -8.97380710e-03 -3.27121243e-02
      -2.65474003e-02 -2.22239811e-02 2.20300304e-03 4.12579589e-02
      1.20009482e-02 1.24091748e-02 8.89655296e-03 -1.68414339e-02
      -2.00927053e-02 -1.62212625e-02 -2.70586237e-02 -2.32109148e-03
      4.45763469e-02 5.18581318e-03 -2.74176942e-03 -1.13992691e-02
      -2.32797433e-02 3.60698602e-03 1.54189370e-03 -1.46719199e-02
      1.15957325e-02 1.63453799e-02 4.44106152e-03 1.85760422e-04
      -3.74671188e-04 -2.11194693e-03 -3.11311223e-02 -2.08956301e-02
      -2.64258757e-02 -5.75994560e-03 2.36429274e-02 -2.10822839e-02
      -7.81354215e-03 -9.47291218e-03 -3.56222056e-02 -4.22136887e-04
      -4.58169263e-03 -4.83183097e-03 4.06354014e-03 -1.60255074e-03
      -1.43343192e-02 -5.79964975e-03 -4.05688118e-03 -5.12179779e-03
      1.33283734e-02 -8.78939521e-04 -1.30576883e-02 5.50565496e-03
      6.40925765e-03 6.40553888e-03 1.09792512e-03 3.19100940e-03
      5.63506689e-03 6.12005312e-03 2.05142307e-03 1.10511144e-03
      -2.62477261e-05 -2.84213107e-03 7.11198943e-03 1.15018236e-02
      9.55268648e-03 1.27440104e-02 1.25293229e-02 -8.29217490e-03
      -8.84282496e-03 -1.53808610e-03 3.87220606e-02 -7.41432980e-03
      -4.31443145e-03 -2.29609944e-03 7.64553319e-04 4.87007201e-03
      1.65961974e-03 8.49218050e-05 -1.77966803e-03 -1.26028247e-02
      -2.27025143e-04 2.25070002e-03 2.71717412e-03 2.85801780e-03
      9.70272999e-03 1.53614325e-03 6.51578070e-04 -1.57462643e-03
      6.58948906e-03 8.19597300e-03 1.18465554e-02 1.23652099e-02
      1.87140591e-02 0. 0. 0. -7.21793695e-05 -3.75885330e-03
      -6.40595899e-05 0. 0. 0. 5.29549271e-03 1.86238310e-03
      1.78937218e-03 -3.94873088e-04 -9.22426302e-03 5.24100557e-04
      4.01354255e-03 4.32142755e-03 3.49170319e-03 0. 0. 0.
      -5.49448123e-05 -5.59947221e-03 -7.53256099e-05 0. 0. 0. 0. 0. 0.
      0. 0. 0. 0. 0. 0. 0. 0. 0. 0. 0. 0. 0. 0. 0. 0. 0. 0. 0. 0. 0. 0.
      0. 0. 0. 0. 0. 0. 0. 0. 0. 0. 0. 0. 0. 0. 0. 0. 0. 0. 0. 0. 0. 0.
      0. 0. 0. 0. 0. 0. 0. 0. 0. 0. 0. 0. 0. 0. 0. 0. 0. 0. 0. 0. 0. 0.
      0. 0. 0. 1.42413657e-04 1.37972704e-04 1.69853811e-04
      1.14446928e-04 -2.61479360e-03 2.63855822e-04 0. 8.44000806e-06
      6.55381300e-05 5.88839035e-03 4.20558732e-03 3.74866836e-03
      8.52138968e-04 -1.30807690e-03 3.56954522e-03 6.80951169e-04
      5.25242649e-03 5.25368564e-03 4.83750773e-06 7.25161908e-06
      2.35578540e-04 1.70508385e-04 -8.57310195e-04 3.25853354e-04
      1.03681807e-04 0. 0. 4.80753044e-03 6.45405008e-03 9.03112255e-03
      4.14604181e-03 8.91572703e-03 5.55268861e-03 3.79005005e-03
      3.09539563e-03 3.71999643e-03 4.06976650e-03 4.20680922e-03
      2.71903793e-03 -1.26071868e-03 -1.25366664e-02 -1.00918126e-03
      2.33492799e-04 6.23519532e-03 3.22259776e-03 9.75263119e-03
      7.50245387e-03 1.35160296e-03 1.04294140e-02 4.55909073e-02
      -9.91777983e-03 -3.42446915e-03 1.25082321e-02 1.64451506e-02
      5.02266176e-03 7.46720098e-03 6.68025017e-03 1.75095838e-03
      -4.37383633e-03 7.53674016e-04 1.50463672e-03 4.72518522e-03
      5.42644039e-03 9.11375415e-03 1.38429580e-02 6.99818647e-03
      2.82207085e-03 2.90084779e-02 -9.83356871e-03 -1.38866454e-02
      1.33124236e-02 1.75189450e-02 7.95695931e-03 5.70440525e-03
      3.91327031e-03 5.91922505e-03 -7.87989935e-04 -6.80806534e-03
      -4.35974123e-03 4.23051883e-03 1.23361126e-02 -6.73267199e-03
      -1.11587998e-02 -3.11073428e-03 -1.08049123e-03 1.47555713e-02
      -9.62393545e-03 -1.46890329e-02 -3.10127251e-03 -7.08457362e-03
      2.45698495e-03 1.31063638e-02 7.02629844e-03 -3.34016909e-03
      1.59844465e-03 -4.06549126e-03 -1.46965049e-02 -2.98067485e-03
      2.31084204e-03 -8.07641074e-03 5.52963791e-03 -7.54296489e-04
      -1.02356784e-02 1.97443496e-02 -1.82235856e-02 -3.57973576e-02
      -2.09812671e-02 -2.22679097e-02 -8.12127162e-03 -7.22298399e-03
      3.31225852e-03 -9.67101008e-03 9.13025346e-03 -1.01861022e-02
      -9.73323546e-03 -4.47133370e-03 -1.27080549e-02 3.36901890e-03
      8.74843355e-03 1.55339371e-02 4.90969094e-03 1.35761304e-02
      -1.47652552e-02 -2.15937588e-02 -2.87151467e-02 1.60142343e-04
      -1.33945737e-02 -6.43715356e-03 -8.88379477e-03 -6.10392261e-03
      2.69452743e-02 5.64950518e-03 -5.34608914e-03 -1.45327989e-02
      -2.02450640e-02 -7.53537053e-03 2.15477194e-03 3.32678831e-03
      5.67006180e-03 2.99631413e-02 1.99934207e-02 -6.62350515e-03
      -7.47663295e-03 -2.82869884e-03 1.09502040e-02 1.99765321e-02
      1.66580267e-02 1.35290222e-02 2.75408328e-02 4.25018137e-03
      -3.06501146e-02 -3.17552537e-02 1.18283164e-02 -5.27999084e-03
      7.29372865e-03 1.13654276e-02 1.79045312e-02 2.81966385e-02
      -4.91001504e-03 -5.46205826e-02 -5.08656092e-02 -2.59487852e-02
      1.28229670e-02 1.34807648e-02 1.24515891e-02 8.62596557e-03
      3.18895169e-02 1.75514296e-02 -8.77442025e-03 -5.27118612e-03
      1.43306591e-02 1.73077285e-02 1.15629192e-02 1.29325110e-02
      2.09859330e-02 2.82622520e-02 -7.06454320e-03 -2.22609900e-02
      -1.63145643e-02 -5.74343279e-03 -2.41187750e-03 -2.38690828e-03
      1.81602705e-02 2.21032780e-02 5.66535955e-03 -8.00254010e-03
      -3.65212448e-02 -2.77948473e-02 -2.73565203e-02 -6.50682580e-03
      1.02960486e-02 2.79571209e-02 2.29172520e-02 7.29847816e-04
      -1.19457049e-02 -1.12664951e-02 -5.64222643e-03 -1.26180835e-02
      1.30171068e-02 2.58469459e-04 1.85623150e-02 2.47191880e-02
      1.91737451e-02 -1.57521404e-02 -1.88438240e-02 -1.20029962e-02
      -1.21760331e-02 -5.77579532e-03 1.12547297e-02 1.88655891e-02
      1.86260752e-02 2.83417292e-02 -1.22601995e-02 1.67579704e-03
      -6.22779457e-03 -4.70217410e-03 -2.08697785e-02 1.04263388e-02
      3.49629926e-03 1.79997738e-03 -9.66429524e-03 -1.54259233e-02
      -6.38611522e-03 -3.39693925e-03 -1.54997949e-02 -3.69308260e-03
      9.96236783e-03 4.56064893e-03 2.35688128e-03 1.09086558e-02
      9.76946671e-03 2.02336200e-02 1.39745986e-02 -8.29309504e-03
      -1.81671660e-02 8.06395337e-03 6.39964826e-03 -5.38699375e-03
      3.09646670e-02 -4.44659870e-03 1.96234835e-03 -1.84859205e-02
      -1.14291692e-02 4.67609800e-03 2.44745947e-02 1.43950675e-02
      -1.29278246e-02 2.90866122e-02 2.04270594e-02 1.03597278e-02
      -1.29660740e-02 -6.05441630e-03 -3.39542609e-03 4.50806879e-03
      6.93048490e-03 -7.23529980e-03 -8.81762803e-03 -3.20668041e-04
      1.14547899e-02 1.00347754e-02 -1.12133585e-02 6.88932696e-03
      -7.60395732e-03 -1.10161733e-02 -1.13216667e-02 -1.63941812e-02
      6.09674316e-04 9.27023590e-03 9.23133548e-03 8.00011586e-03
      9.69574600e-03 2.47090682e-02 5.70651423e-03 -2.76241992e-02
      -4.60696314e-03 -4.37726238e-04 7.89597351e-03 2.43974762e-04
      -4.95074841e-04 2.31083352e-02 1.38447452e-02 -6.76168222e-03
      -1.68066602e-02 -1.17219817e-02 6.03275420e-03 2.37534735e-02
      1.57438256e-02 1.48128597e-02 -1.08202789e-02 -3.00143454e-02
      -3.78031880e-02 -3.93684348e-03 -1.22198565e-02 2.76711042e-04
      -1.94173621e-03 1.96159631e-03 -5.81328532e-05 -1.15837893e-02
      -2.22612433e-02 -2.68439166e-02 9.72063281e-03 3.77123654e-02
      1.48746083e-02 1.57292709e-02 9.16229095e-03 -7.17777992e-03
      2.61138640e-02 -2.01788265e-04 -2.61306074e-02 -9.06962808e-03
      -1.36309974e-02 6.23644935e-03 2.41891239e-02 1.43213514e-02
      1.21773332e-02 2.65469626e-02 6.02687243e-03 -1.58315245e-02
      8.53051990e-03 2.04532612e-02 1.23434896e-02 1.99239887e-02
      2.02746075e-02 2.14411765e-02 -4.31400202e-02 -3.63034420e-02
      -3.79698016e-02 8.57417192e-03 4.06267345e-02 1.44452658e-02
      1.51550099e-02 1.12750195e-02 -2.28361823e-02 -4.77826484e-02
      -3.13527770e-02 -3.53709906e-02 1.20021938e-03 1.67763252e-02
      2.28119176e-03 1.23295318e-02 1.01617659e-02 -2.71960814e-02
      -4.33045579e-03 -2.36350615e-02 -1.34224193e-02 2.19153147e-02
      4.05158624e-02 1.61203519e-02 1.40054952e-02 1.89913120e-02
      1.07059740e-02 -2.26074434e-03 -9.92813800e-03 -1.03773065e-02
      1.50825446e-02 2.23790556e-02 1.46135390e-02 1.59006212e-02
      1.48729393e-02 1.31620318e-02 -2.64721196e-02 -7.99950399e-03
      -1.92674305e-02 -9.20914579e-03 8.08815844e-03 -2.06398834e-02
      -1.06327340e-03 7.07842130e-03 -2.09723115e-02 4.06092266e-04
      -2.03463086e-03 1.83050393e-03 3.14998615e-04 -1.78151410e-02
      -1.00945150e-02 5.91598218e-04 1.76508934e-03 4.42287000e-03
      -4.26981598e-03 -1.51082349e-03 -1.26321735e-02 -3.77507322e-03
      5.30737126e-03 4.18952294e-03 4.46880469e-03 1.54148163e-02
      3.21580027e-03 -1.05893053e-03 6.42797240e-05 -3.24568199e-03
      -5.31237479e-03 -1.77968480e-02 1.07486341e-02 8.09059851e-03
      7.69179547e-03 6.70301355e-03 5.39509160e-03 -2.46285251e-03
      1.63950596e-03 1.74265774e-03 2.79148258e-02 2.81444864e-05
      1.54680235e-03 -2.51546642e-03 1.77114375e-03 1.14249196e-02
      3.27599910e-03 1.66795624e-03 -2.22178898e-03 -1.27942003e-02
      1.09478668e-03 1.00113288e-03 8.24252144e-04 3.53854080e-03
      3.62013211e-03 1.39415858e-03 -8.22322501e-04 -8.47131945e-03
      2.44817939e-02 1.12879733e-02 1.00694234e-02 3.16046015e-03
      -5.95957926e-03 1.44110639e-02 3.16029624e-03 2.85311427e-04
      -7.97039072e-04 -9.56224184e-03 1.16183318e-03 3.21694510e-03
      3.49870557e-03 7.32700247e-03 1.68006476e-02 4.90776170e-03
      4.94251819e-03 -6.58362638e-04 -1.00959383e-03 2.03174236e-03
      2.00414029e-03 3.50154773e-03 4.02482832e-03 0. 0. 0.
      -7.18368974e-05 -4.15574713e-03 -6.37237536e-05 0. 0. 0.
      2.24959869e-02 4.90783155e-03 3.06238211e-03 5.11701182e-05
      -1.05666067e-03 1.99721125e-03 2.48829694e-03 4.16469248e-03
      6.48760237e-03 0. 0. 0. -7.25133068e-05 -5.21628791e-03
      -6.28938869e-05 0. 0. 0. 0. 0. 0. 0. 0. 0. 0. 0. 0. 0. 0. 0. 0. 0.
      0. 0. 0. 0. 0. 0. 0. 0. 0. 0. 0. 0. 0. 0. 0. 0. 0. 0. 0. 0. 0. 0.</_></support_vectors>
  <uncompressed_sv_total>21</uncompressed_sv_total>
  <uncompressed_support_vectors>
    <_>
      0. 0. 0. 0. 0. 0. 0. 0. 0. 0. 0. 0. 0. 0. 0. 0. 0. 0. 0. 0. 0. 0.
      0. 0. 0. 0. 0. 0. 0. 0. 0. 0. 0. 0. 0. 0. 0. 0. 0. 0.
      6.40385374e-02 0. 0. 0. 0. 1.45068895e-02 1.53653603e-02
      1.35833276e-02 5.36779836e-02 6.92141175e-01 4.45316657e-02
      5.95914060e-03 8.84664990e-03 7.99298938e-03 0. 0. 0. 0.
      7.49439746e-02 0. 0. 0. 0. 9.05127358e-03 1.83201060e-02
      1.15065901e-02 1.23481050e-01 6.92141175e-01 5.88068739e-02
      1.11770835e-02 1.36179496e-02 3.87268607e-03 4.69943918e-02
      6.00928627e-02 7.71974921e-02 1.07164301e-01 6.00742102e-01
      6.12223558e-02 1.62016042e-02 2.69498937e-02 3.15763168e-02
      5.36839440e-02 8.87881666e-02 1.47843286e-01 9.57848728e-02
      1.31253242e-01 3.75788622e-02 4.73298430e-02 1.08323418e-01
      7.46299475e-02 5.56832515e-02 6.27807751e-02 5.55153154e-02
      1.83687747e-01 6.00742102e-01 8.60825852e-02 4.00725193e-02
      3.89606133e-02 3.43841575e-02 8.25401768e-02 8.57366920e-02
      1.35190099e-01 1.14030674e-01 1.76385224e-01 6.92204684e-02
      1.00766629e-01 1.06289066e-01 6.97297305e-02 6.29391670e-02
      8.58882293e-02 1.14516221e-01 9.55578759e-02 1.19450115e-01
      6.43293634e-02 1.35264054e-01 2.67259121e-01 1.51689380e-01
      1.12102337e-01 1.37721211e-01 8.19353685e-02 9.81149301e-02
      1.51860744e-01 7.21326098e-02 1.32261157e-01 1.44729719e-01
      1.13571733e-01 8.48725513e-02 1.37680352e-01 1.52091056e-01
      1.64130867e-01 1.67816013e-01 1.43123984e-01 2.44906127e-01
      3.04572076e-01 1.26193345e-01 1.73251376e-01 2.33263046e-01
      1.10813811e-01 2.69445926e-01 2.04190820e-01 2.39321485e-01
      1.76949620e-01 2.59982198e-01 2.03790262e-01 1.17339507e-01
      1.03122510e-01 8.49309787e-02 6.91281930e-02 1.48045912e-01
      6.46958351e-02 1.49340466e-01 9.99255553e-02 6.38888255e-02
      2.02959687e-01 2.00688720e-01 1.39260709e-01 9.79575142e-02
      2.63905913e-01 7.90785626e-02 1.73720494e-01 1.43271402e-01
      1.32867634e-01 1.65425345e-01 1.37534082e-01 1.06062211e-01
      2.37938166e-01 1.49034128e-01 1.72557175e-01 1.40019029e-01
      2.00016320e-01 1.72229707e-01 2.17997119e-01 1.56893477e-01
      1.48442402e-01 2.38541752e-01 3.02590311e-01 1.18845113e-01
      1.44347787e-01 2.34360501e-01 2.30114475e-01 1.71375349e-01
      1.85008287e-01 1.26195580e-01 1.10904343e-01 2.07582876e-01
      1.01007506e-01 1.00456595e-01 9.54231322e-02 1.84694588e-01
      1.38849437e-01 1.88682064e-01 1.78389832e-01 1.57378286e-01
      2.20765993e-01 8.46865177e-02 1.00355662e-01 8.87246579e-02
      1.71154529e-01 2.11539716e-01 1.12066776e-01 1.38890803e-01
      1.77677572e-01 2.52361447e-01 1.17912680e-01 9.46568251e-02
      1.23986579e-01 1.94520429e-01 2.86294997e-01 2.45467916e-01
      2.10742712e-01 1.42925277e-01 2.22736731e-01 7.74123967e-02
      1.14167035e-01 1.40622780e-01 1.95694268e-01 8.36137384e-02
      9.88296345e-02 6.83985054e-02 6.28100708e-02 1.18895799e-01
      2.23575085e-02 3.31522301e-02 4.10918295e-02 5.56683689e-02
      1.08046629e-01 7.62995034e-02 7.82813355e-02 6.17031977e-02
      1.27649918e-01 2.47009881e-02 4.06308547e-02 7.94146508e-02
      8.79107714e-02 3.21934819e-01 1.90529421e-01 2.13107735e-01
      5.01502827e-02 1.07862957e-01 2.18008533e-02 4.98418435e-02
      6.80141822e-02 3.31298679e-01 4.61405754e-01 1.56577453e-01
      2.95664936e-01 8.93994719e-02 1.12469755e-01 3.95645797e-02
      5.90655841e-02 9.58778933e-02 4.61405754e-01 6.96417764e-02
      4.60908934e-02 9.24040899e-02 5.16494736e-02 5.98619357e-02
      2.01103594e-02 2.79217251e-02 6.46342784e-02 7.74343088e-02
      1.33749515e-01 1.24184839e-01 9.62810516e-02 3.90588827e-02
      5.98384477e-02 1.91996414e-02 3.57211381e-02 6.13506176e-02
      9.20339003e-02 4.15869802e-01 9.70786139e-02 1.84181616e-01
      9.08003524e-02 6.79727867e-02 3.42429429e-02 3.04563493e-02
      1.19380563e-01 4.15869802e-01 4.15869802e-01 2.36700132e-01
      1.56821758e-01 6.30014464e-02 3.17615494e-02 1.86662339e-02
      6.21639527e-02 2.16777593e-01 4.15869802e-01 1.82381645e-01
      1.87900960e-01 6.14732653e-02 3.55024338e-02 5.46126328e-02
      4.21478301e-02 3.79022621e-02 5.12240045e-02 1.34467170e-01
      1.31293088e-01 1.42096743e-01 6.13418669e-02 2.45809145e-02
      6.33645207e-02 5.73640242e-02 9.55763981e-02 1.37296349e-01
      1.77059188e-01 3.94645959e-01 2.61388004e-01 9.12200212e-02
      4.92838696e-02 2.06217617e-02 1.61745492e-02 6.73814267e-02
      2.11757690e-01 3.94645959e-01 2.53222287e-01 1.32061109e-01
      4.42838855e-02 4.36621122e-02 5.98622113e-02 8.99958387e-02
      1.15768805e-01 2.83226758e-01 3.94645959e-01 9.00091752e-02
      6.64805919e-02 6.79810718e-02 1.24918306e-02 1.12186402e-01
      9.78749692e-02 1.54847756e-01 1.94526792e-01 1.41404137e-01
      9.01887342e-02 4.83743884e-02 4.31328677e-02 2.89760511e-02
      1.75635725e-01 1.18404351e-01 1.46652922e-01 2.09700212e-01
      1.07446991e-01 1.68127209e-01 4.99589592e-02 2.68854797e-02
      1.86600257e-02 7.23903626e-02 1.28161132e-01 2.37462044e-01
      3.37070316e-01 4.17638689e-01 1.74088538e-01 3.50953899e-02
      3.39496620e-02 3.95000204e-02 1.63780808e-01 1.30678147e-01
      2.46409640e-01 3.44674200e-01 2.89600223e-01 1.20784260e-01
      8.31953734e-02 7.92375281e-02 4.91451994e-02 2.27692023e-01
      8.91625434e-02 1.41737819e-01 2.11842686e-01 1.50969699e-01
      1.42551973e-01 9.32579637e-02 1.08607247e-01 3.58829461e-02
      2.26065576e-01 1.35408685e-01 1.68364480e-01 1.39469355e-01
      1.83985651e-01 1.51227683e-01 4.71408181e-02 6.11169115e-02
      4.72114198e-02 2.25535080e-01 1.78306535e-01 2.88723618e-01
      3.53463113e-01 1.96490392e-01 1.69544220e-01 5.71300797e-02
      1.08215891e-01 6.82015494e-02 2.38134861e-01 1.50936753e-01
      2.14861333e-01 2.24733487e-01 1.96864069e-01 1.37416378e-01
      6.50693700e-02 7.45873675e-02 5.74835688e-02 2.34426394e-01
      1.12938546e-01 1.75462306e-01 1.37514144e-01 9.99006256e-02
      1.99832410e-01 6.86192736e-02 1.56219855e-01 1.34479463e-01
      3.28386635e-01 6.16853647e-02 1.39809921e-01 2.00283498e-01
      1.29235432e-01 1.91255718e-01 3.70371416e-02 8.58907700e-02
      1.02087535e-01 2.19202265e-01 1.50481224e-01 1.84240937e-01
      2.00772166e-01 1.39185086e-01 1.98666751e-01 4.91800383e-02
      2.01573789e-01 1.43932953e-01 2.84336716e-01 1.85827613e-01
      1.91822350e-01 2.42213890e-01 1.61376595e-01 9.56149176e-02
      6.35067150e-02 7.82382488e-02 5.66911399e-02 2.98374623e-01
      7.48930722e-02 8.99683386e-02 1.28679976e-01 7.72151947e-02
      4.39712666e-02 5.05160578e-02 1.36241242e-02 5.76479137e-02
      5.51020324e-01 1.57753646e-01 5.34906201e-02 5.04611321e-02
      4.63516228e-02 7.56967291e-02 3.06621399e-02 1.01787366e-01
      5.85853867e-02 3.18202198e-01 6.96020201e-02 1.24164715e-01
      1.49412975e-01 9.70960110e-02 3.33538838e-02 1.63093805e-02
      2.53442936e-02 5.59458658e-02 5.51020324e-01 7.61059597e-02
      7.63734952e-02 6.52171820e-02 6.55313283e-02 1.00276032e-02
      1.30800512e-02 7.46092584e-04 3.83486971e-02 7.00235546e-01
      8.50072056e-02 7.08253169e-03 5.14928065e-03 1.17081562e-02 0. 0.
      0. 0. 0. 0. 0. 0. 0. 5.43998135e-03 4.86272667e-03 5.25016198e-03
      3.54704000e-02 7.00235546e-01 3.59675288e-02 1.33070368e-02
      8.58510751e-03 1.68587118e-02 0. 0. 0. 0. 0. 0. 0. 0. 0. 0. 0. 0.
      0. 0. 0. 0. 0. 0. 0. 0. 0. 0. 0. 0. 0. 0. 0. 0. 0. 0. 0. 0. 0. 0.
      0. 0. 0. 0. 0. 0. 0. 0. 0. 0. 0. 0. 0. 0. 0. 0. 0. 0. 0. 0. 0. 0.
      0. 0. 0. 0. 0. 0. 0. 0. 0. 0. 0. 0. 0. 0. 0. 0. 0. 0. 0. 0. 0. 0.
      0. 0. 0. 0. 0. 0. 0. 6.56580403e-02 0. 0. 0. 0. 5.07482328e-03
      1.85947437e-02 7.79260462e-03 1.26598179e-01 6.79021835e-01
      6.64873496e-02 4.12087608e-03 3.61714279e-03 8.17751791e-03 0. 0.
      0. 0. 7.69353956e-02 0. 0. 0. 0. 5.55944722e-03 1.91951748e-02
      8.70267767e-03 1.50839448e-01 6.79021835e-01 1.27329648e-01
      1.04811508e-02 8.06731544e-03 1.60551853e-02 3.61447483e-02
      5.88703603e-02 4.46907394e-02 1.66123763e-01 5.85256815e-01
      8.15479755e-02 2.92451531e-02 1.76145472e-02 3.03390753e-02
      8.94407183e-02 7.63938576e-02 9.13604125e-02 7.97169432e-02
      1.61254480e-01 4.50315326e-02 6.42650798e-02 3.97354476e-02
      4.02686410e-02 4.92672250e-02 6.11194856e-02 5.77967502e-02
      1.71330228e-01 5.85256815e-01 1.70753479e-01 6.58148155e-02
      4.64382023e-02 5.69772720e-02 1.46194220e-01 9.62609053e-02
      9.21494290e-02 4.42139357e-02 2.20808044e-01 1.04157187e-01
      1.01402782e-01 6.80207908e-02 9.35719609e-02 1.30836874e-01
      1.28752545e-01 1.17932402e-01 1.27325192e-01 1.48880228e-01
      1.05937190e-01 9.89376903e-02 8.22632462e-02 1.08377516e-01
      1.70573398e-01 1.90574974e-01 9.16992053e-02 2.11754471e-01
      2.34262437e-01 2.37795740e-01 9.74746495e-02 1.42511889e-01
      2.42269576e-01 2.19762638e-01 1.64310917e-01 1.27194867e-01
      7.06677735e-02 2.34536767e-01 1.33293509e-01 9.91745144e-02
      7.43262991e-02 1.71637684e-01 2.28024989e-01 1.88247040e-01
      1.89341947e-01 1.69131532e-01 2.37529084e-01 1.91780522e-01
      1.63209215e-01 1.29704699e-01 2.19717741e-01 9.23046619e-02
      1.31683558e-01 8.88034329e-02 1.32354081e-01 1.42335817e-01
      1.64453819e-01 6.72624335e-02 1.45099118e-01 1.66809693e-01
      8.99156258e-02 1.42982244e-01 1.50218561e-01 1.33271635e-01
      1.75945237e-01 1.29107133e-01 6.96602538e-02 1.54154882e-01
      1.57779947e-01 1.60054490e-01 1.53204918e-01 1.29791200e-01
      1.22076832e-01 1.64263427e-01 1.16774499e-01 1.15850851e-01
      1.67732507e-01 1.64183095e-01 1.72023222e-01 2.46521905e-01
      2.41667509e-01 1.37959823e-01 3.50978583e-01 1.65686592e-01
      1.00983821e-01 1.96253330e-01 3.41242701e-01 1.52696567e-02
      2.57838517e-02 3.67523804e-02 1.88403185e-02 2.26884186e-02
      1.99896004e-02 1.39737893e-02 1.80857647e-02 1.77030154e-02
      9.42795053e-02 2.28263110e-01 3.18726003e-01 1.57233421e-02
      1.89794581e-02 1.43043250e-02 1.89244729e-02 1.79694686e-02
      1.13524087e-01 1.80563126e-02 1.98970020e-01 4.31757629e-01
      1.35748535e-01 8.94166529e-02 5.40750138e-02 1.50013147e-02
      2.20442507e-02 4.46434282e-02 1.46050781e-01 4.80421275e-01
      4.80421275e-01 1.87000081e-01 5.71208559e-02 5.72995804e-02
      2.23799422e-02 1.16718346e-02 1.74399078e-01 1.48152709e-01
      1.63373381e-01 2.78348327e-01 5.41606359e-03 7.65653374e-03
      1.98469148e-03 6.81586657e-03 5.60268201e-03 1.98145717e-01
      3.12638253e-01 9.26549360e-02 1.62518770e-01 6.05193200e-03
      6.92977849e-03 2.77522649e-03 5.05002029e-03 9.03486926e-03
      3.12638253e-01 2.06848443e-01 3.12638253e-01 3.12638253e-01
      2.72043981e-02 1.45537388e-02 1.63451564e-02 1.03255613e-02
      1.48735410e-02 2.38861606e-01 3.12638253e-01 1.79341704e-01
      2.62722284e-01 1.45564582e-02 5.07366098e-02 2.52677333e-02
      3.32787111e-02 5.06706312e-02 3.12638253e-01 3.00566882e-01
      2.59058811e-02 2.80829817e-02 7.19515933e-03 7.16558378e-03
      4.14596219e-03 3.23888101e-02 7.68527985e-02 3.00566882e-01
      3.00566882e-01 3.76502946e-02 1.36987260e-02 6.42693974e-03
      2.88826041e-03 8.71742517e-03 1.01504065e-01 1.94812059e-01
      3.00566882e-01 3.00566882e-01 3.57305706e-02 4.27900627e-02
      1.13080908e-02 3.09664067e-02 1.32174036e-02 9.99367163e-02
      1.36295259e-01 3.00566882e-01 3.00566882e-01 2.99784783e-02
      2.34663133e-02 8.04563705e-03 5.69217978e-03 2.43243314e-02
      3.00566882e-01 3.00566882e-01 3.00566882e-01 2.33410761e-01
      4.46834750e-02 9.19995457e-03 3.87781672e-03 8.04740994e-04
      1.66095346e-02 1.03644527e-01 2.23037243e-01 3.00200433e-01
      1.17061228e-01 2.64660474e-02 7.74706295e-03 2.84035993e-03
      2.98228161e-03 1.81200095e-02 7.89055005e-02 2.34136328e-01
      2.43273273e-01 2.52278090e-01 5.24277464e-02 2.37476025e-02
      1.00992331e-02 9.26429406e-03 7.27252290e-02 3.00200433e-01
      3.00200433e-01 3.00200433e-01 1.90771863e-01 4.96831983e-02
      1.40735945e-02 7.13355606e-03 5.81834093e-03 4.69188504e-02
      3.00200433e-01 3.00200433e-01 3.00200433e-01 6.40493557e-02
      9.22646467e-03 6.93383394e-03 5.02594607e-03 9.85720195e-03
      4.45470773e-02 1.25616476e-01 2.90302664e-01 2.46595532e-01
      2.94511337e-02 4.74068010e-03 5.35180885e-03 1.56845842e-02
      3.61504890e-02 6.37835488e-02 9.77360681e-02 1.42844886e-01
      8.99205804e-02 1.07751146e-01 2.21163593e-02 8.19538627e-03
      5.07480185e-03 8.97348206e-03 7.14266151e-02 3.88007224e-01
      3.88007224e-01 3.70553643e-01 9.47279297e-03 7.79608451e-03
      5.36040915e-03 1.13439262e-02 2.71472670e-02 1.40303284e-01
      3.88007224e-01 3.88007224e-01 8.19852650e-02 5.27031720e-02
      2.29720566e-02 3.79865207e-02 4.16348837e-02 1.25678837e-01
      1.88701898e-01 2.06975192e-01 2.23108709e-01 1.00804552e-01
      7.43861720e-02 3.79800200e-02 8.28368217e-02 5.52831031e-02
      1.29156649e-01 1.03487805e-01 1.28362954e-01 1.52067825e-01
      1.35990396e-01 6.08309247e-02 3.00274119e-02 4.44516465e-02
      5.74484318e-02 1.26934797e-01 2.82509953e-01 4.44675177e-01
      4.44675177e-01 8.72080177e-02 1.22018658e-01 5.90693280e-02
      1.09192312e-01 8.61081854e-02 1.49611160e-01 1.68983996e-01
      2.49258041e-01 2.20897183e-01 1.55098423e-01 9.10227299e-02
      3.71850394e-02 7.33224824e-02 7.71839246e-02 1.72075361e-01
      1.03071190e-01 1.36392117e-01 1.65499836e-01 1.25732914e-01
      1.21593900e-01 5.13245873e-02 1.11446016e-01 1.16298668e-01
      2.32426628e-01 1.91765681e-01 1.33794814e-01 1.74208865e-01
      1.09285802e-01 8.83903876e-02 9.58047062e-02 1.04825519e-01
      7.71311224e-02 2.03014210e-01 1.76171631e-01 2.91677803e-01
      2.31400698e-01 1.31816998e-01 1.61849752e-01 9.11039561e-02
      7.82481581e-02 1.54447228e-01 2.86453992e-01 2.90690273e-01
      3.07813853e-01 2.59372950e-01 1.50783896e-01 8.03617314e-02
      2.43512392e-02 7.69348666e-02 8.61528143e-02 2.53451645e-01
      1.20605081e-01 8.86188149e-02 8.87713134e-02 8.71171355e-02
      4.48943414e-02 1.07458811e-02 3.27239446e-02 7.12592229e-02
      5.00577986e-01 1.00455806e-01 4.07186784e-02 2.71043386e-02
      8.82019922e-02 1.59587801e-01 5.35616688e-02 1.02455877e-01
      1.75038233e-01 2.32581541e-01 2.22450748e-01 1.83021322e-01
      1.23183727e-01 9.89105403e-02 1.18874080e-01 4.09091786e-02
      1.18606143e-01 1.58528790e-01 5.00577986e-01 2.23310336e-01
      5.18326424e-02 2.07078476e-02 5.75334318e-02 1.31441560e-02
      2.22151214e-03 6.46482361e-03 3.90364006e-02 6.92853987e-01
      5.12768179e-02 6.63845707e-03 5.10186004e-03 3.38037983e-02 0. 0.
      0. 0. 0. 0. 0. 0. 0. 4.27381061e-02 8.59379396e-03 5.05265892e-02
      7.19292611e-02 6.92853987e-01 1.31475985e-01 4.10039537e-03
      7.56569905e-04 2.17824914e-02 0. 0. 0. 0. 0. 0. 0. 0. 0. 0. 0. 0.
      0. 0. 0. 0. 0. 0. 0. 0. 0. 0. 0. 0. 0. 0. 0. 0. 0. 0. 0. 0. 0. 0.
      0. 0. 0. 0. 0. 0. 0. 0. 0. 0. 0. 0. 0. 0. 0. 0. 0. 0. 0. 0. 0. 0.
      0. 0. 0. 0. 0. 0. 0. 0. 0. 0. 0. 0. 0. 0. 0. 0. 0. 0. 0. 0. 0. 0.
      0. 0. 0. 0. 0. 0. 0. 6.61572888e-02 0. 0. 0. 0. 7.29282806e-03
      1.04933456e-02 5.36536844e-03 9.85676348e-02 6.80780053e-01
      7.43941516e-02 1.79220848e-02 2.18661465e-02 9.65491217e-03 0. 0.
      0. 0. 7.77209252e-02 0. 0. 0. 0. 9.60625336e-03 1.91183519e-02
      5.43854758e-03 1.16218910e-01 6.80780053e-01 1.52227759e-01
      1.71688274e-02 4.53560092e-02 3.08493013e-03 4.83258888e-02
      3.34836915e-02 2.69938856e-02 1.03688233e-01 5.48626900e-01
      1.38424754e-01 8.80144536e-02 6.98061809e-02 3.87809984e-02
      1.06462099e-01 7.50206187e-02 5.82146086e-02 3.05859130e-02
      1.56682789e-01 1.41587541e-01 1.50254667e-01 8.92274752e-02
      8.58208314e-02 4.17502671e-02 5.25163449e-02 2.11839769e-02
      1.20233938e-01 5.48626900e-01 2.17916206e-01 8.02481920e-02
      1.08171545e-01 3.29712033e-02 9.73200053e-02 8.85232240e-02
      7.08219782e-02 7.19197690e-02 2.29264259e-01 1.68940693e-01
      1.46701992e-01 1.33024022e-01 8.12009797e-02 5.89649156e-02
      5.44353276e-02 4.45188060e-02 3.02565843e-02 6.07901141e-02
      5.10395952e-02 4.73104827e-02 3.64626423e-02 6.89107403e-02
      1.34201303e-01 9.37010795e-02 9.70885158e-02 7.93434829e-02
      4.62470911e-02 2.99851727e-02 3.94195095e-02 4.62539978e-02
      1.29780471e-01 1.25311002e-01 3.18715572e-01 2.25042135e-01
      5.21254018e-02 2.14517534e-01 1.46108821e-01 4.92302068e-02
      4.73008677e-02 1.02341898e-01 3.87006193e-01 3.87006193e-01
      3.87006193e-01 6.99513853e-02 1.81859791e-01 1.16899475e-01
      2.16386821e-02 4.18888479e-02 3.87006193e-01 8.75406042e-02
      4.30584922e-02 2.56958343e-02 2.79641617e-02 1.47740245e-02
      4.02926886e-03 1.97062511e-02 4.02780026e-02 9.08828378e-02
      8.61674324e-02 1.59601629e-01 1.44189641e-01 4.47979346e-02
      1.95435494e-01 5.87199144e-02 2.51774322e-02 6.30504042e-02
      1.16558790e-01 3.31846446e-01 1.51038304e-01 5.67166768e-02
      1.61231440e-02 1.18008731e-02 1.20662767e-02 9.46546625e-03
      3.81901711e-02 3.31846446e-01 3.31846446e-01 3.16146493e-01
      3.31846446e-01 1.52131870e-01 3.31846446e-01 1.98510453e-01
      3.10993344e-02 8.58226568e-02 3.31846446e-01 1.12690190e-02
      2.11088970e-01 2.98522681e-01 1.14055507e-01 1.90805316e-01
      7.43721053e-02 9.37155169e-03 1.18157696e-02 2.11518817e-02
      1.78512055e-02 2.98522681e-01 2.98522681e-01 1.59400612e-01
      1.42937645e-01 8.80098641e-02 2.12843232e-02 2.17802729e-02
      3.08359284e-02 5.40992729e-02 2.61756897e-01 2.98522681e-01
      1.23867564e-01 2.98522681e-01 1.70608059e-01 2.00403910e-02
      2.30576470e-02 5.45380749e-02 7.76619185e-03 1.77613899e-01
      2.98522681e-01 1.14434503e-01 2.98522353e-01 1.92987442e-01
      4.35531251e-02 8.41872171e-02 7.99072012e-02 8.77744183e-02
      2.38982245e-01 2.75993675e-01 8.13693777e-02 1.14423998e-01
      7.72761479e-02 4.97718230e-02 7.28375390e-02 9.34063122e-02
      1.74279809e-01 7.12411329e-02 1.68881267e-01 9.15506855e-02
      2.75993675e-01 7.57071599e-02 1.90505654e-01 1.99468121e-01
      2.49333441e-01 4.14719246e-02 3.68264318e-02 1.27911761e-01
      6.82086870e-02 1.74602941e-01 2.29084685e-01 1.51184320e-01
      2.37930357e-01 1.57542303e-01 1.23059794e-01 9.14709922e-03
      7.37239271e-02 9.16541293e-02 2.75993675e-01 1.20642856e-01
      2.75993675e-01 2.75993675e-01 1.95138961e-01 2.38054708e-01
      2.25130860e-02 7.83003718e-02 7.40378425e-02 2.79727906e-01
      4.21446748e-02 1.95578486e-01 1.81891009e-01 2.71275938e-01
      2.20835686e-01 4.42609079e-02 5.49872369e-02 2.45976839e-02
      8.80825520e-02 7.82510117e-02 2.79727906e-01 2.79727906e-01
      2.14387253e-01 1.19235896e-01 9.61271953e-03 4.38569710e-02
      7.14561045e-02 2.79727906e-01 3.57289799e-02 1.99491888e-01
      1.99921668e-01 1.55647904e-01 2.68748909e-01 4.30845954e-02
      4.55864370e-02 2.89382506e-02 2.52574146e-01 8.29420611e-02
      7.04021081e-02 8.34672898e-02 2.61382848e-01 8.73473883e-02
      3.55708152e-02 3.12481839e-02 1.95979979e-02 1.08455464e-01
      1.53694212e-01 2.83269733e-01 2.83269733e-01 1.21931031e-01
      6.95954859e-02 2.65956335e-02 1.16028870e-02 1.08369961e-02
      1.22516476e-01 1.40706882e-01 2.83269733e-01 2.74265558e-01
      1.04157157e-01 1.44611120e-01 3.07362042e-02 3.50503810e-02
      7.90556520e-02 2.83269733e-01 1.89480379e-01 2.83269733e-01
      1.53201863e-01 2.46732309e-01 4.87845279e-02 2.51739267e-02
      2.04578824e-02 1.26392305e-01 2.83269733e-01 2.22400054e-01
      2.83269733e-01 1.53899476e-01 7.84099102e-02 5.57669699e-02
      2.34651547e-02 5.86641300e-03 3.81508470e-03 5.08377850e-02
      9.58951861e-02 3.35309088e-01 3.35309088e-01 9.30977836e-02
      1.12859057e-02 8.04471597e-03 1.84271461e-03 1.20184408e-03
      2.77963169e-02 1.97338223e-01 3.35309088e-01 3.35309088e-01
      1.99995637e-02 6.84175864e-02 4.58044708e-02 2.29835566e-02
      5.15738614e-02 2.18019336e-01 1.29747108e-01 2.77400374e-01
      1.08751893e-01 4.77348790e-02 6.13413341e-02 1.00947969e-01
      4.59589809e-02 6.33716444e-03 5.75931929e-02 3.35309088e-01
      3.35309088e-01 2.58789062e-01 7.61763826e-02 1.07591022e-02
      2.16374313e-03 2.94869160e-03 5.80414245e-03 1.62038691e-02
      1.29500747e-01 3.38204592e-01 1.60378337e-01 2.10856330e-02
      3.16347368e-02 1.18480828e-02 1.01400418e-02 1.08081922e-02
      2.41964888e-02 5.22127412e-02 1.16566576e-01 9.85839441e-02
      6.36326000e-02 1.19145505e-01 1.90439895e-01 4.28392403e-02
      4.41066315e-03 2.76294556e-02 2.98369855e-01 3.38204592e-01
      3.38204592e-01 1.97975442e-01 2.54699886e-01 2.10753724e-01
      1.43479034e-02 1.59496665e-02 5.52131832e-02 1.09228142e-01
      2.08064452e-01 3.38204592e-01 3.38204592e-01 2.85774525e-02
      2.44914424e-02 1.43403122e-02 1.45888841e-02 4.65593971e-02
      6.91266656e-02 6.92642480e-02 8.45363960e-02 6.20730333e-02
      5.44093661e-02 1.79230664e-02 1.25722690e-02 4.31202017e-02
      5.67572638e-02 8.27291012e-02 1.03401199e-01 6.56441897e-02
      4.24701869e-02 3.61820340e-01 1.05221987e-01 1.35736838e-02
      2.10375953e-02 6.60231411e-02 1.08218201e-01 9.44022313e-02
      3.78033668e-01 4.27087843e-01 4.27087843e-01 8.68422613e-02
      1.72008071e-02 2.38724723e-02 4.11352739e-02 7.25828931e-02
      1.22972764e-01 2.25344777e-01 4.27087843e-01 8.08821470e-02
      1.56214647e-02 3.30835097e-02 6.29482493e-02 6.97079375e-02
      8.91364589e-02 9.62373093e-02 6.08028844e-02 4.29695025e-02
      4.77841534e-02 1.11183999e-02 5.00757657e-02 6.21860027e-02
      2.59114236e-01 1.00651860e-01 2.59030648e-02 2.10837014e-02
      1.77531783e-02 3.77466053e-01 1.08273931e-01 2.11700834e-02
      2.90172026e-02 9.68833342e-02 1.11586504e-01 1.45270184e-01
      1.58097669e-01 3.77466053e-01 2.91080564e-01 7.01393709e-02
      2.76927762e-02 4.23702374e-02 3.77466053e-01 3.09829295e-01
      1.58749506e-01 7.08230808e-02 3.77466053e-01 3.11511308e-02
      4.91476152e-03 5.06920703e-02 6.93444088e-02 5.66747248e-01
      1.17078565e-01 9.04594641e-03 4.78283176e-03 7.05909403e-03 0. 0.
      0. 0. 0. 0. 0. 0. 0. 8.61106142e-02 2.95935459e-02 2.57527232e-02
      5.07579930e-02 6.14833057e-01 4.51379001e-01 1.47528931e-01
      3.62601951e-02 1.84529915e-01 0. 0. 0. 0. 0. 0. 0. 0. 0. 0. 0. 0.
      0. 0. 0. 0. 0. 0. 0. 0. 0. 0. 0. 0. 0. 0. 0. 0. 0. 0. 0. 0. 0. 0.
      0. 0. 0. 0. 0. 0. 0. 0. 0. 0. 0. 0. 0. 0. 0. 0. 0. 0. 0. 0. 0. 0.
      0. 0. 0. 0. 0. 0. 0. 0. 0. 0. 0. 0. 0. 0. 0. 0. 0. 0. 0. 0. 0. 0.
      0. 0. 0. 0. 0. 0. 0. 6.86259717e-02 0. 0. 0. 0. 1.11316564e-02
      2.12950427e-02 1.12742754e-02 1.06320359e-01 6.75665021e-01
      1.31936938e-01 8.66557937e-03 1.82915442e-02 7.00031116e-04 0. 0.
      0. 0. 7.55317658e-02 0. 0. 0. 0. 9.82601754e-03 2.18513757e-02
      1.16943270e-02 1.01789631e-01 6.75665021e-01 1.69573277e-01
      9.37508792e-03 6.17972622e-03 3.83402524e-03 3.48331146e-02
      5.10438085e-02 3.37935835e-02 1.06314652e-01 4.93066698e-01
      1.61713049e-01 3.80387902e-02 5.24597354e-02 2.33141873e-02
      7.44346827e-02 5.29290028e-02 6.94755167e-02 8.80029872e-02
      2.87865907e-01 1.84639826e-01 8.40729550e-02 1.09582044e-01
      6.73350990e-02 3.98142897e-02 5.33275157e-02 4.00848910e-02
      1.23279110e-01 4.93066698e-01 1.82916090e-01 2.90975906e-02
      3.03661898e-02 3.04337982e-02 7.12450072e-02 8.77114832e-02
      9.55491140e-02 1.25296727e-01 3.90437037e-01 1.89872190e-01
      7.51525015e-02 7.70936459e-02 7.16747195e-02 4.19790000e-02
      1.21802442e-01 1.25911117e-01 6.18480220e-02 3.07637662e-01
      1.49981111e-01 1.68429799e-02 2.04124358e-02 3.65838744e-02
      3.07637662e-01 2.72758961e-01 2.03174800e-01 5.88884577e-02
      3.07637662e-01 1.61372975e-01 3.76938954e-02 2.62873564e-02
      2.25881547e-01 1.63076892e-02 2.43931785e-02 5.36573417e-02
      1.58544600e-01 3.07637662e-01 1.57185972e-01 5.65709583e-02
      2.48365961e-02 2.58489363e-02 1.90934479e-01 9.54395384e-02
      8.23532715e-02 1.80410668e-01 3.07637662e-01 2.47775987e-01
      1.79901555e-01 5.68167418e-02 1.56974494e-01 2.50533640e-01
      9.75281671e-02 7.74732977e-02 3.21573876e-02 3.20352651e-02
      4.04103994e-02 3.94376516e-02 3.46135944e-02 2.50533640e-01
      2.50533640e-01 1.57403916e-01 2.50533640e-01 1.28850237e-01
      1.76042214e-01 1.52977332e-01 6.00990281e-02 3.64023149e-02
      2.50533640e-01 2.06953853e-01 1.49515435e-01 1.18092358e-01
      5.44548705e-02 8.92694890e-02 1.24659486e-01 1.34514153e-01
      9.12244394e-02 1.96539313e-01 2.15135857e-01 2.50533640e-01
      2.38287434e-01 1.13091186e-01 2.50533640e-01 1.72630578e-01
      1.83477834e-01 1.50739834e-01 2.50533640e-01 1.00458257e-01
      1.85115099e-01 3.04864407e-01 1.89437211e-01 3.04864407e-01
      1.97330102e-01 3.23180556e-02 1.80298239e-02 7.99200535e-02
      7.81891271e-02 1.23923406e-01 1.83361918e-01 2.01409280e-01
      3.04864407e-01 1.68394893e-01 4.89397198e-02 6.93525821e-02
      1.04228899e-01 6.72664568e-02 1.15489885e-01 1.39409259e-01
      1.59726068e-01 3.04864407e-01 1.38817579e-01 1.17013454e-01
      5.61758764e-02 1.02094300e-01 1.36391237e-01 7.81975538e-02
      4.33522761e-02 3.04864407e-01 3.04864407e-01 1.31365895e-01
      1.06654197e-01 1.08138919e-02 7.46812150e-02 1.10809073e-01
      4.71948348e-02 3.16789262e-02 9.38543677e-02 2.24662483e-01
      1.80723622e-01 1.50124386e-01 1.81923568e-01 1.48476362e-01
      8.05928782e-02 3.40370163e-02 2.61935592e-02 3.98254134e-02
      1.89751446e-01 1.29987925e-01 2.70678490e-01 2.70678490e-01
      1.42844379e-01 2.13697821e-01 8.52120593e-02 5.67324683e-02
      2.55168825e-01 2.70678490e-01 1.03612520e-01 1.38324916e-01
      6.44524395e-02 1.55684963e-01 1.77751556e-01 8.04387480e-02
      7.43340030e-02 1.21822901e-01 2.70678490e-01 1.09517902e-01
      2.70678490e-01 2.70678490e-01 1.98455572e-01 6.57626912e-02
      2.30072364e-02 1.09235616e-02 2.63428912e-02 1.25996858e-01
      6.31740540e-02 2.39518300e-01 2.74329960e-01 1.32922158e-01
      1.33395955e-01 1.00321537e-02 1.50601380e-02 3.18811536e-02
      1.12057708e-01 4.51000966e-02 5.42045012e-02 7.34220892e-02
      1.56447664e-01 2.25840583e-01 7.15492740e-02 4.83299494e-02
      7.78683200e-02 2.06184372e-01 1.99993804e-01 2.74329960e-01
      2.74329960e-01 2.74329960e-01 2.05589965e-01 5.74156120e-02
      1.03344306e-01 1.31027266e-01 2.61224121e-01 1.89107344e-01
      2.74329960e-01 2.32741281e-01 2.74329960e-01 1.26607254e-01
      1.84681136e-02 3.57867815e-02 1.15041837e-01 2.89709300e-01
      7.10996538e-02 1.35475144e-01 6.65317103e-02 1.66251868e-01
      4.83708382e-02 3.17823999e-02 5.45427315e-02 2.56181329e-01
      3.55186731e-01 1.38033822e-01 3.42111170e-01 1.19142629e-01
      5.65786362e-02 1.30972251e-01 4.09775749e-02 1.03355683e-01
      1.29269138e-01 3.55186731e-01 8.22902769e-02 6.76275119e-02
      5.33693731e-02 1.48162842e-01 4.73620407e-02 3.10013704e-02
      1.78072438e-01 2.53583163e-01 3.55186731e-01 1.47548035e-01
      1.08739704e-01 4.84726727e-02 6.86219558e-02 6.42025918e-02
      7.12962821e-02 8.68519023e-02 1.41879708e-01 2.90530473e-01
      9.01718214e-02 1.56353533e-01 6.03214949e-02 2.70539541e-02
      1.31763548e-01 2.90530473e-01 1.88745856e-01 9.78266001e-02
      6.73935562e-02 1.58592060e-01 2.19146937e-01 1.65452510e-01
      9.16129798e-02 3.73485871e-02 7.02545270e-02 1.75801218e-01
      2.65301049e-01 2.90530473e-01 1.83288977e-01 9.86597314e-02
      3.98045368e-02 1.62404384e-02 1.31027207e-01 2.30935067e-01
      2.75733054e-01 2.55455166e-01 2.33084470e-01 1.74969614e-01
      1.58804163e-01 1.24149263e-01 6.20164126e-02 1.46741614e-01
      2.60548055e-01 1.13011762e-01 4.28535417e-02 5.65416254e-02
      1.48098856e-01 2.10594475e-01 2.60548055e-01 1.57469332e-01
      2.60548055e-01 1.93577230e-01 4.68793698e-02 4.85502072e-02
      1.26439035e-01 1.42731234e-01 8.01759213e-02 2.60548055e-01
      2.60548055e-01 1.30456299e-01 1.41975641e-01 1.51871786e-01
      9.39322338e-02 1.64225876e-01 1.64396331e-01 1.19278133e-01
      1.48202017e-01 1.00663245e-01 2.40698040e-01 1.19982541e-01
      9.21493322e-02 9.53329206e-02 1.99055359e-01 2.03828290e-01
      5.50981648e-02 1.77063957e-01 2.60548055e-01 2.63037592e-01
      9.08791646e-02 2.84612440e-02 3.59919146e-02 6.62317127e-02
      6.69302046e-02 2.83568371e-02 2.12533101e-01 3.26117098e-01
      3.26117098e-01 1.11929812e-01 4.21542004e-02 1.41984550e-02
      2.69682035e-02 4.51669954e-02 3.54552567e-02 1.79448396e-01
      3.26117098e-01 2.26590559e-01 9.14741755e-02 6.36513159e-02
      7.27131143e-02 8.66601765e-02 1.03125252e-01 5.92099242e-02
      1.37941286e-01 3.26117098e-01 2.38316566e-01 1.36609569e-01
      1.43621534e-01 6.75095096e-02 8.11546072e-02 1.60267919e-01
      9.40940082e-02 1.68397054e-01 3.26117098e-01 3.15750331e-01
      1.33131772e-01 3.59609351e-02 2.71935016e-02 9.47651193e-02
      8.87250677e-02 5.35625964e-02 9.56931934e-02 3.15750331e-01
      1.88053653e-01 9.04663056e-02 2.45848428e-02 4.92604040e-02
      3.15750331e-01 1.95421860e-01 8.89395848e-02 2.06286963e-02
      2.06884339e-01 2.36407116e-01 1.78512245e-01 1.58335611e-01
      1.30262822e-01 2.24686474e-01 1.81209907e-01 7.30966255e-02
      1.05335347e-01 3.15750331e-01 9.09678340e-02 8.55189562e-02
      6.52443245e-02 1.62878931e-01 3.15750331e-01 1.65851220e-01
      5.28449491e-02 1.84233077e-02 8.51193666e-02 5.56309968e-02
      4.53179739e-02 2.43289359e-02 5.53758182e-02 6.23316288e-01
      3.32197338e-01 1.11333698e-01 1.09852199e-02 8.09858888e-02 0. 0.
      0. 0. 0. 0. 0. 0. 0. 1.95327420e-02 3.44727784e-02 3.90594117e-02
      1.95009142e-01 6.23316288e-01 1.89628989e-01 3.59980986e-02
      5.78743080e-03 8.99623148e-03 0. 0. 0. 0. 0. 0. 0. 0. 0. 0. 0. 0.
      0. 0. 0. 0. 0. 0. 0. 0. 0. 0. 0. 0. 0. 0. 0. 0. 0. 0. 0. 0. 0. 0.
      0. 0. 0. 0. 0. 0. 0. 0. 0. 0. 0. 0. 0. 0. 0. 0. 0. 0. 0. 0. 0. 0.
      0. 0. 0. 0. 0. 0. 0. 0. 0. 0. 0. 0. 0. 0. 0. 0. 0. 0. 0. 0. 0. 0.
      0. 0. 0. 0. 0. 0. 0. 6.42262250e-02 0. 0. 0. 0. 1.10288355e-02
      1.49688674e-02 9.81704798e-03 1.42451569e-01 6.76741898e-01
      1.09060690e-01 5.95836574e-03 5.30503690e-03 7.21079390e-03 0. 0.
      0. 0. 7.80921057e-02 0. 0. 0. 0. 1.65833458e-02 1.87740866e-02
      7.89764617e-03 1.43681139e-01 6.76741898e-01 1.13446146e-01
      6.07273541e-03 2.07468215e-03 8.47696327e-03 3.72213051e-02
      4.55247760e-02 3.93332802e-02 1.63397446e-01 5.38165867e-01
      1.31177738e-01 2.21108533e-02 3.32721621e-02 3.36257890e-02
      6.38688728e-02 7.82985538e-02 9.76778641e-02 1.12966821e-01
      3.34260345e-01 1.00612760e-01 4.62622084e-02 7.05127493e-02
      8.47354233e-02 5.06810658e-02 6.28831983e-02 3.21001671e-02
      1.77729458e-01 5.38165867e-01 1.37446955e-01 2.50553656e-02
      5.21313250e-02 4.70801555e-02 8.04864466e-02 8.60064402e-02
      5.43227829e-02 1.46998644e-01 1.85560837e-01 9.38014984e-02
      7.18886927e-02 1.60542026e-01 1.37413025e-01 4.27994318e-02
      2.08255555e-02 3.17567103e-02 1.28801584e-01 3.10766309e-01
      7.42912069e-02 1.46527380e-01 8.76290202e-02 7.35297278e-02
      2.78734446e-01 6.14388958e-02 4.01780494e-02 1.66557446e-01
      3.10766309e-01 1.14653572e-01 2.39219636e-01 2.10085094e-01
      3.10766309e-01 6.63228184e-02 2.57576555e-02 1.78370960e-02
      5.68955913e-02 1.69241607e-01 5.44755980e-02 1.09905101e-01
      1.15075760e-01 1.08343013e-01 3.10766309e-01 4.31148559e-02
      2.30126344e-02 7.35774487e-02 1.94832042e-01 4.80054021e-02
      1.42560616e-01 2.88218141e-01 3.10766309e-01 2.39464924e-01
      7.26750419e-02 4.08196375e-02 2.47809477e-02 6.23054169e-02
      6.82274774e-02 8.21606368e-02 1.01903975e-01 2.75269508e-01
      1.88269421e-01 1.30170152e-01 6.96157590e-02 8.38015229e-02
      2.75269508e-01 1.53116688e-01 2.18234494e-01 1.97431594e-01
      2.75269508e-01 2.61302978e-01 1.44032408e-02 8.03923607e-03
      1.28903007e-02 2.60505211e-02 1.05044506e-02 2.67149694e-02
      9.96670574e-02 2.75269508e-01 2.40756571e-01 1.80310030e-02
      1.75402910e-02 7.77079090e-02 2.75269508e-01 1.20210327e-01
      2.75269508e-01 2.06665501e-01 2.75269508e-01 3.78687382e-02
      3.98350433e-02 3.73028219e-02 1.17311940e-01 3.04595679e-01
      1.43852815e-01 2.45557711e-01 1.21062919e-01 9.96711776e-02
      5.66686876e-02 3.73558104e-02 2.41467152e-02 1.30516231e-01
      3.04595679e-01 1.17791429e-01 1.41211927e-01 4.33032773e-02
      4.48018573e-02 6.34714663e-02 1.67508870e-02 3.46537940e-02
      1.44404128e-01 3.04595679e-01 2.16987476e-01 3.04595679e-01
      2.87578017e-01 9.07666609e-02 2.51018815e-02 4.58526313e-02
      7.62404352e-02 1.06420755e-01 3.04595679e-01 1.94354385e-01
      3.04595679e-01 1.84384584e-01 2.40369923e-02 2.11274713e-01
      8.29728097e-02 7.96639398e-02 1.98854208e-01 2.72630841e-01
      8.57614055e-02 1.37341291e-01 3.58969271e-02 1.70864344e-01
      2.68380404e-01 8.54985714e-02 1.05683208e-01 1.36003435e-01
      2.72630841e-01 7.83427358e-02 2.72630841e-01 1.53836966e-01
      2.50789553e-01 1.67021945e-01 5.79311922e-02 8.67548361e-02
      7.74474218e-02 2.65235931e-01 1.15292490e-01 1.38166502e-01
      6.12852797e-02 1.26783371e-01 2.72630841e-01 5.07936589e-02
      6.61752895e-02 1.64407760e-01 2.72630841e-01 4.96274121e-02
      3.10156867e-02 2.27142498e-02 2.54075319e-01 1.97823182e-01
      5.85407428e-02 7.84304664e-02 7.77956545e-02 1.89945370e-01
      1.95433244e-01 2.43964419e-01 2.04837248e-01 2.10070401e-01
      2.26280242e-01 9.65323299e-02 1.99970156e-01 1.91538513e-01
      2.43964419e-01 2.36668453e-01 2.43964419e-01 1.72085792e-01
      2.26581722e-01 1.33444563e-01 3.07087768e-02 4.52965647e-02
      7.75459111e-02 1.78798899e-01 6.53537214e-02 4.31970879e-02
      4.04054932e-02 1.16569802e-01 2.31487989e-01 6.32483810e-02
      1.28167138e-01 1.79087311e-01 2.14685857e-01 1.45250335e-01
      1.49718493e-01 1.75120577e-01 1.52379721e-01 1.08866476e-01
      4.37015221e-02 1.48753852e-01 1.40280053e-01 2.94486821e-01
      7.00705647e-02 3.93321291e-02 2.92272922e-02 1.12717547e-01
      4.19460535e-02 3.21290381e-02 2.89842039e-01 2.01029748e-01
      2.94486821e-01 6.53228834e-02 1.90190952e-02 6.05701981e-03
      6.55328706e-02 1.55283540e-01 1.04164436e-01 2.94486821e-01
      2.94486821e-01 2.94486821e-01 7.76615962e-02 1.07275270e-01
      9.98826772e-02 9.35553312e-02 4.31424789e-02 1.21865377e-01
      2.94486821e-01 2.94486821e-01 2.94486821e-01 1.46224899e-02
      3.03251352e-02 1.96459424e-02 4.53471839e-02 2.59952862e-02
      4.03668694e-02 1.67165384e-01 1.71300903e-01 2.62409896e-01
      1.38234422e-01 1.08618699e-01 5.51976785e-02 2.76255999e-02
      9.69871655e-02 1.20646410e-01 1.27389401e-01 1.27740338e-01
      1.79237664e-01 1.85097665e-01 2.62409896e-01 2.62409896e-01
      1.15471810e-01 3.98791991e-02 9.31787640e-02 2.41192266e-01
      1.53556809e-01 2.16945320e-01 4.06480990e-02 6.81860372e-02
      5.24054654e-02 4.05552909e-02 1.79619446e-01 2.62409896e-01
      2.62409896e-01 2.29089484e-01 1.55800313e-01 8.99557248e-02
      2.34883249e-01 2.30177835e-01 2.17938453e-01 1.41022310e-01
      1.06081881e-01 7.62237832e-02 5.35167530e-02 1.18843824e-01
      1.50025398e-01 1.56791657e-01 1.63218036e-01 1.88005820e-01
      2.97169536e-01 1.10928491e-01 7.52360299e-02 5.02429046e-02
      1.56971574e-01 1.37386188e-01 3.66217196e-02 1.50358051e-01
      2.97169536e-01 2.97169536e-01 2.14504734e-01 1.27074406e-01
      9.36791897e-02 8.66696388e-02 9.11853090e-02 1.17958322e-01
      1.41593680e-01 2.97169536e-01 2.97169536e-01 1.39811337e-01
      7.09892213e-02 3.20644528e-02 1.23988338e-01 7.51380026e-02
      2.01931745e-02 2.20081046e-01 2.97169536e-01 3.22309345e-01
      7.86093771e-02 5.57299033e-02 3.54971252e-02 7.49947131e-02
      4.64101657e-02 3.59842181e-02 1.47064313e-01 3.19297135e-01
      3.22309345e-01 1.35708630e-01 1.33388057e-01 8.05395097e-02
      7.23466873e-02 7.97613338e-02 4.53601405e-02 7.89179802e-02
      2.47450054e-01 3.22309345e-01 9.38610435e-02 6.27680495e-02
      1.78332385e-02 5.25102392e-02 9.25035868e-03 8.96810833e-03
      2.31812611e-01 3.22309345e-01 3.22309345e-01 1.51960388e-01
      9.05030370e-02 3.95546891e-02 2.07907315e-02 1.09843034e-02
      3.31589882e-03 5.77453151e-02 3.22309345e-01 2.11660579e-01
      1.75887465e-01 1.66394338e-01 1.60790250e-01 3.02878618e-01
      1.65322587e-01 4.42068651e-02 6.68690950e-02 1.55451745e-01
      4.51646000e-02 5.49345054e-02 4.60479148e-02 1.92914605e-01
      3.44412267e-01 1.78878456e-01 3.01493350e-02 3.44356522e-02
      3.79061773e-02 3.44412267e-01 1.72944918e-01 7.99838156e-02
      9.43678170e-02 1.82994306e-01 7.42969736e-02 1.67621709e-02
      8.06386024e-02 2.06832618e-01 2.30906531e-01 1.16933405e-01
      5.17784841e-02 2.30644614e-01 3.44412267e-01 1.04354315e-01
      2.10847892e-02 8.80773142e-02 7.80840442e-02 9.20884777e-03
      2.35008206e-02 1.46108251e-02 2.37029120e-01 6.14656329e-01
      1.44690707e-01 1.18863387e-02 1.84946079e-02 4.43700608e-03 0. 0.
      0. 0. 0. 0. 0. 0. 0. 1.01594053e-01 9.27111432e-02 6.00345619e-02
      3.54547799e-01 6.14656329e-01 8.62643048e-02 1.38243865e-02
      5.21737486e-02 3.47357318e-02 0. 0. 0. 0. 0. 0. 0. 0. 0. 0. 0. 0.
      0. 0. 0. 0. 0. 0. 0. 0. 0. 0. 0. 0. 0. 0. 0. 0. 0. 0. 0. 0. 0. 0.
      0. 0. 0. 0. 0. 0. 0. 0. 0. 0. 0. 0. 0. 0. 0. 0. 0. 0. 0. 0. 0. 0.
      0. 0. 0. 0. 0. 0. 0. 0. 0. 0. 0. 0. 0. 0. 0. 0. 0. 0. 0. 0. 0. 0.
      0. 0. 0. 0. 0. 0. 0. 6.63786754e-02 0. 0. 0. 0. 9.59562510e-03
      1.16873682e-02 4.89093736e-03 7.73726031e-02 6.90434456e-01
      1.07744709e-01 7.13279750e-03 5.49666258e-03 6.05978211e-03 0. 0.
      0. 0. 7.50660896e-02 0. 0. 0. 0. 6.76542334e-03 9.30853654e-03
      1.94176026e-02 9.08758789e-02 6.90434456e-01 4.82339151e-02
      1.72644705e-02 1.53925018e-02 8.47719144e-03 5.10654189e-02
      5.27939908e-02 2.49644034e-02 1.34469748e-01 5.86689770e-01
      1.29758626e-01 2.56116465e-02 4.20282446e-02 4.97827455e-02
      9.72795561e-02 1.01692960e-01 4.48350832e-02 1.56825215e-01
      1.25052243e-01 8.69377926e-02 8.14755931e-02 1.17200181e-01
      1.43844143e-01 4.28696536e-02 3.64016108e-02 5.75761870e-02
      1.22113936e-01 5.86689770e-01 8.17194134e-02 3.47788595e-02
      5.03533520e-02 6.15920462e-02 9.61188152e-02 6.18729889e-02
      7.55241886e-02 9.11194980e-02 1.75145641e-01 1.04035497e-01
      8.85856450e-02 1.19822614e-01 1.51125610e-01 1.20637476e-01
      1.05570890e-01 5.77419735e-02 1.05339490e-01 1.28475860e-01
      1.43702894e-01 1.19525246e-01 1.74385265e-01 1.79207325e-01
      3.67884308e-01 1.24743953e-01 9.27395448e-02 8.06048438e-02
      2.13405341e-01 1.36360213e-01 1.27228811e-01 2.75577694e-01
      4.23024386e-01 7.66247883e-02 6.70172125e-02 5.52367270e-02
      1.27357215e-01 1.32172137e-01 1.35506287e-01 1.63641110e-01
      1.42337143e-01 9.98479277e-02 1.38394356e-01 1.12202361e-01
      8.74294713e-02 1.25546142e-01 2.62948751e-01 1.51058778e-01
      1.96603090e-01 9.95648131e-02 1.49383500e-01 2.56957054e-01
      6.26177639e-02 4.90200520e-02 4.50748466e-02 1.01565979e-01
      3.38350609e-02 4.66975756e-02 1.02945670e-01 3.56275201e-01
      2.87720442e-01 6.77356794e-02 3.34902070e-02 1.04409710e-01
      3.56275201e-01 1.70372427e-01 3.56275201e-01 3.56275201e-01
      3.56275201e-01 8.61770734e-02 6.70631751e-02 4.83528823e-02
      5.23544252e-02 1.55060410e-01 5.30626103e-02 6.62092417e-02
      5.03067039e-02 1.18459538e-01 7.89202228e-02 6.13187961e-02
      3.61575559e-02 6.87782392e-02 1.38153851e-01 4.62172292e-02
      9.76061225e-02 1.08261317e-01 1.06922291e-01 2.32088957e-02
      7.71062309e-03 1.55941620e-02 6.33335635e-02 2.53253937e-01
      1.77958220e-01 3.49536747e-01 2.28638679e-01 2.88250372e-02
      2.49184296e-02 1.51672242e-02 4.30688299e-02 7.47994930e-02
      2.08600178e-01 2.22594991e-01 3.49536747e-01 3.39734137e-01
      3.17183621e-02 1.26798404e-02 6.76037604e-03 1.04120374e-02
      2.50038616e-02 5.28875291e-02 8.85116607e-02 2.28478491e-01
      1.24455787e-01 1.50261521e-02 1.22968622e-01 1.73028987e-02
      1.55291697e-02 4.06534262e-02 6.16659895e-02 1.28411680e-01
      3.49536747e-01 3.49536747e-01 1.38398066e-01 9.37935486e-02
      1.67665463e-02 2.65513565e-02 2.53286660e-02 1.11058004e-01
      7.35970587e-02 3.17414969e-01 1.33556053e-01 9.87766609e-02
      1.98591053e-01 1.82263330e-02 2.84820590e-02 4.74914089e-02
      2.01388717e-01 3.35960984e-02 3.72239538e-02 2.43044328e-02
      1.67343348e-01 2.86627203e-01 4.98466492e-02 6.82169572e-03
      1.11636128e-02 3.92771214e-02 6.39160052e-02 3.17414969e-01
      3.17414969e-01 3.12674403e-01 3.17414969e-01 4.72298563e-02
      5.50337285e-02 9.60442703e-03 8.97389278e-02 7.04353824e-02
      3.17414969e-01 1.24386244e-01 3.17414969e-01 1.23765312e-01
      2.30567567e-02 5.42128682e-02 3.27474549e-02 1.16132326e-01
      2.67460123e-02 7.75001198e-03 1.32127125e-02 1.12043142e-01
      1.82602376e-01 1.57386541e-01 2.97014773e-01 9.00631770e-02
      8.71547461e-02 4.08519804e-02 5.83867468e-02 8.23798776e-02
      8.32647458e-02 3.29696745e-01 9.55120549e-02 3.02595884e-01
      2.02863868e-02 7.16163963e-02 3.95496301e-02 5.59493564e-02
      1.76827852e-02 3.29696745e-01 3.29696745e-01 3.29696745e-01
      3.29696745e-01 4.58718576e-02 2.77049653e-02 4.56467122e-02
      2.05187742e-02 1.43975345e-02 3.29696745e-01 1.53296620e-01
      2.21542925e-01 2.84093469e-01 2.50389457e-01 1.22716911e-01
      3.40620503e-02 5.80736510e-02 6.12754785e-02 5.50746992e-02
      5.65606430e-02 1.63457230e-01 2.84093469e-01 2.02128336e-01
      1.26141340e-01 6.36805035e-03 2.57429369e-02 2.66395248e-02
      4.04053852e-02 2.84093469e-01 2.84093469e-01 2.84093469e-01
      1.20561063e-01 2.09409501e-02 6.55476376e-02 3.17206457e-02
      1.37567008e-02 2.16125429e-01 2.84093469e-01 2.84093469e-01
      2.84093469e-01 9.15438309e-02 2.73704659e-02 1.96264144e-02
      2.89979670e-02 2.38142032e-02 1.48336068e-01 4.23025340e-02
      2.40020365e-01 3.21020663e-01 1.48811147e-01 9.75143909e-02
      7.63896480e-03 2.24244129e-02 2.84788869e-02 4.39941697e-02
      9.53439102e-02 3.21020663e-01 3.21020663e-01 3.11012805e-01
      1.11106440e-01 2.11162511e-02 2.28825584e-02 2.91099790e-02
      8.57351124e-02 2.18670234e-01 3.21020663e-01 3.21020663e-01
      6.94719404e-02 2.83419602e-02 8.95290927e-04 1.16195716e-02
      2.27545481e-02 6.49815351e-02 6.32309243e-02 2.60680437e-01
      3.21020663e-01 1.58492997e-01 3.21923643e-02 1.21390494e-02
      9.34114447e-04 9.75447893e-03 9.99743212e-03 3.23481560e-01
      3.23481560e-01 3.23481560e-01 2.53119558e-01 7.76242763e-02
      4.07252908e-02 2.99598556e-02 6.34992868e-02 3.23481560e-01
      3.23481560e-01 1.95772573e-01 1.68491527e-01 9.63023528e-02
      7.33913109e-02 2.67685186e-02 5.36245340e-03 1.49019435e-01
      3.23481560e-01 6.24877326e-02 1.64181411e-01 2.19337195e-01
      1.72583833e-01 4.41153310e-02 2.34213732e-02 4.87282872e-03
      1.14585292e-02 1.18750716e-02 5.65662943e-02 1.17485099e-01
      1.89821705e-01 1.35130942e-01 6.58611208e-02 9.99025721e-03
      6.20087190e-03 6.46840688e-03 2.35777497e-02 3.86593014e-01
      2.19083682e-01 1.66198820e-01 8.33448693e-02 4.74854708e-02
      7.18412315e-03 3.93157639e-03 1.66512191e-01 3.86593014e-01
      3.86593014e-01 3.03031176e-01 1.67900532e-01 1.01707026e-01
      3.06503680e-02 5.77078806e-03 1.54121662e-03 3.34844328e-02
